digraph Tree {
node [shape=box] ;
0 [label="X[11] <= 0.5\ngini = 0.499\nsamples = 92649\nvalue = [43867, 48782]"] ;
1 [label="X[59] <= 0.5\ngini = 0.5\nsamples = 76348\nvalue = [37095, 39253]"] ;
0 -> 1 [labeldistance=2.5, labelangle=45, headlabel="True"] ;
2 [label="X[59] <= -0.5\ngini = 0.5\nsamples = 72719\nvalue = [35764, 36955]"] ;
1 -> 2 ;
3 [label="X[63] <= -0.5\ngini = 0.484\nsamples = 3397\nvalue = [2000, 1397]"] ;
2 -> 3 ;
4 [label="X[43] <= 0.5\ngini = 0.391\nsamples = 30\nvalue = [8, 22]"] ;
3 -> 4 ;
5 [label="X[24] <= 0.5\ngini = 0.337\nsamples = 28\nvalue = [6, 22]"] ;
4 -> 5 ;
6 [label="X[69] <= 0.5\ngini = 0.269\nsamples = 25\nvalue = [4, 21]"] ;
5 -> 6 ;
7 [label="X[30] <= -0.5\ngini = 0.219\nsamples = 24\nvalue = [3, 21]"] ;
6 -> 7 ;
8 [label="gini = 0.0\nsamples = 1\nvalue = [1, 0]"] ;
7 -> 8 ;
9 [label="X[88] <= -0.5\ngini = 0.159\nsamples = 23\nvalue = [2, 21]"] ;
7 -> 9 ;
10 [label="gini = 0.0\nsamples = 1\nvalue = [1, 0]"] ;
9 -> 10 ;
11 [label="X[73] <= 0.5\ngini = 0.087\nsamples = 22\nvalue = [1, 21]"] ;
9 -> 11 ;
12 [label="gini = 0.0\nsamples = 21\nvalue = [0, 21]"] ;
11 -> 12 ;
13 [label="gini = 0.0\nsamples = 1\nvalue = [1, 0]"] ;
11 -> 13 ;
14 [label="gini = 0.0\nsamples = 1\nvalue = [1, 0]"] ;
6 -> 14 ;
15 [label="X[65] <= 0.5\ngini = 0.444\nsamples = 3\nvalue = [2, 1]"] ;
5 -> 15 ;
16 [label="gini = 0.0\nsamples = 2\nvalue = [2, 0]"] ;
15 -> 16 ;
17 [label="gini = 0.0\nsamples = 1\nvalue = [0, 1]"] ;
15 -> 17 ;
18 [label="gini = 0.0\nsamples = 2\nvalue = [2, 0]"] ;
4 -> 18 ;
19 [label="X[42] <= -0.5\ngini = 0.483\nsamples = 3367\nvalue = [1992, 1375]"] ;
3 -> 19 ;
20 [label="X[66] <= 0.5\ngini = 0.282\nsamples = 53\nvalue = [44, 9]"] ;
19 -> 20 ;
21 [label="X[8] <= -0.5\ngini = 0.237\nsamples = 51\nvalue = [44, 7]"] ;
20 -> 21 ;
22 [label="gini = 0.0\nsamples = 2\nvalue = [0, 2]"] ;
21 -> 22 ;
23 [label="X[87] <= -0.5\ngini = 0.183\nsamples = 49\nvalue = [44, 5]"] ;
21 -> 23 ;
24 [label="gini = 0.0\nsamples = 1\nvalue = [0, 1]"] ;
23 -> 24 ;
25 [label="X[109] <= -0.5\ngini = 0.153\nsamples = 48\nvalue = [44, 4]"] ;
23 -> 25 ;
26 [label="gini = 0.0\nsamples = 1\nvalue = [0, 1]"] ;
25 -> 26 ;
27 [label="X[27] <= -0.5\ngini = 0.12\nsamples = 47\nvalue = [44, 3]"] ;
25 -> 27 ;
28 [label="gini = 0.0\nsamples = 1\nvalue = [0, 1]"] ;
27 -> 28 ;
29 [label="X[44] <= 0.5\ngini = 0.083\nsamples = 46\nvalue = [44, 2]"] ;
27 -> 29 ;
30 [label="X[64] <= 0.5\ngini = 0.044\nsamples = 44\nvalue = [43, 1]"] ;
29 -> 30 ;
31 [label="gini = 0.0\nsamples = 42\nvalue = [42, 0]"] ;
30 -> 31 ;
32 [label="X[30] <= 0.5\ngini = 0.5\nsamples = 2\nvalue = [1, 1]"] ;
30 -> 32 ;
33 [label="gini = 0.0\nsamples = 1\nvalue = [1, 0]"] ;
32 -> 33 ;
34 [label="gini = 0.0\nsamples = 1\nvalue = [0, 1]"] ;
32 -> 34 ;
35 [label="X[20] <= -0.5\ngini = 0.5\nsamples = 2\nvalue = [1, 1]"] ;
29 -> 35 ;
36 [label="gini = 0.0\nsamples = 1\nvalue = [0, 1]"] ;
35 -> 36 ;
37 [label="gini = 0.0\nsamples = 1\nvalue = [1, 0]"] ;
35 -> 37 ;
38 [label="gini = 0.0\nsamples = 2\nvalue = [0, 2]"] ;
20 -> 38 ;
39 [label="X[20] <= 0.5\ngini = 0.485\nsamples = 3314\nvalue = [1948, 1366]"] ;
19 -> 39 ;
40 [label="X[74] <= -0.5\ngini = 0.481\nsamples = 2963\nvalue = [1770, 1193]"] ;
39 -> 40 ;
41 [label="X[27] <= 0.5\ngini = 0.484\nsamples = 56\nvalue = [23, 33]"] ;
40 -> 41 ;
42 [label="X[55] <= 0.5\ngini = 0.497\nsamples = 50\nvalue = [23, 27]"] ;
41 -> 42 ;
43 [label="X[107] <= 0.5\ngini = 0.489\nsamples = 47\nvalue = [20, 27]"] ;
42 -> 43 ;
44 [label="X[34] <= 0.5\ngini = 0.48\nsamples = 45\nvalue = [18, 27]"] ;
43 -> 44 ;
45 [label="X[95] <= -0.5\ngini = 0.45\nsamples = 38\nvalue = [13, 25]"] ;
44 -> 45 ;
46 [label="gini = 0.0\nsamples = 2\nvalue = [2, 0]"] ;
45 -> 46 ;
47 [label="X[21] <= 0.5\ngini = 0.424\nsamples = 36\nvalue = [11, 25]"] ;
45 -> 47 ;
48 [label="X[99] <= 0.5\ngini = 0.389\nsamples = 34\nvalue = [9, 25]"] ;
47 -> 48 ;
49 [label="X[78] <= 0.5\ngini = 0.342\nsamples = 32\nvalue = [7, 25]"] ;
48 -> 49 ;
50 [label="X[21] <= -0.5\ngini = 0.278\nsamples = 30\nvalue = [5, 25]"] ;
49 -> 50 ;
51 [label="gini = 0.0\nsamples = 1\nvalue = [1, 0]"] ;
50 -> 51 ;
52 [label="X[89] <= 0.5\ngini = 0.238\nsamples = 29\nvalue = [4, 25]"] ;
50 -> 52 ;
53 [label="X[62] <= -0.5\ngini = 0.191\nsamples = 28\nvalue = [3, 25]"] ;
52 -> 53 ;
54 [label="gini = 0.0\nsamples = 1\nvalue = [1, 0]"] ;
53 -> 54 ;
55 [label="X[28] <= -0.5\ngini = 0.137\nsamples = 27\nvalue = [2, 25]"] ;
53 -> 55 ;
56 [label="gini = 0.0\nsamples = 1\nvalue = [1, 0]"] ;
55 -> 56 ;
57 [label="X[75] <= -0.5\ngini = 0.074\nsamples = 26\nvalue = [1, 25]"] ;
55 -> 57 ;
58 [label="X[105] <= 0.5\ngini = 0.5\nsamples = 2\nvalue = [1, 1]"] ;
57 -> 58 ;
59 [label="gini = 0.0\nsamples = 1\nvalue = [0, 1]"] ;
58 -> 59 ;
60 [label="gini = 0.0\nsamples = 1\nvalue = [1, 0]"] ;
58 -> 60 ;
61 [label="gini = 0.0\nsamples = 24\nvalue = [0, 24]"] ;
57 -> 61 ;
62 [label="gini = 0.0\nsamples = 1\nvalue = [1, 0]"] ;
52 -> 62 ;
63 [label="gini = 0.0\nsamples = 2\nvalue = [2, 0]"] ;
49 -> 63 ;
64 [label="gini = 0.0\nsamples = 2\nvalue = [2, 0]"] ;
48 -> 64 ;
65 [label="gini = 0.0\nsamples = 2\nvalue = [2, 0]"] ;
47 -> 65 ;
66 [label="X[0] <= 144.5\ngini = 0.408\nsamples = 7\nvalue = [5, 2]"] ;
44 -> 66 ;
67 [label="gini = 0.0\nsamples = 1\nvalue = [0, 1]"] ;
66 -> 67 ;
68 [label="X[114] <= 0.5\ngini = 0.278\nsamples = 6\nvalue = [5, 1]"] ;
66 -> 68 ;
69 [label="gini = 0.0\nsamples = 5\nvalue = [5, 0]"] ;
68 -> 69 ;
70 [label="gini = 0.0\nsamples = 1\nvalue = [0, 1]"] ;
68 -> 70 ;
71 [label="gini = 0.0\nsamples = 2\nvalue = [2, 0]"] ;
43 -> 71 ;
72 [label="gini = 0.0\nsamples = 3\nvalue = [3, 0]"] ;
42 -> 72 ;
73 [label="gini = 0.0\nsamples = 6\nvalue = [0, 6]"] ;
41 -> 73 ;
74 [label="X[45] <= -0.5\ngini = 0.48\nsamples = 2907\nvalue = [1747, 1160]"] ;
40 -> 74 ;
75 [label="X[28] <= 0.5\ngini = 0.489\nsamples = 61\nvalue = [26, 35]"] ;
74 -> 75 ;
76 [label="X[97] <= 0.5\ngini = 0.479\nsamples = 58\nvalue = [23, 35]"] ;
75 -> 76 ;
77 [label="X[43] <= -0.5\ngini = 0.463\nsamples = 55\nvalue = [20, 35]"] ;
76 -> 77 ;
78 [label="gini = 0.0\nsamples = 3\nvalue = [3, 0]"] ;
77 -> 78 ;
79 [label="X[101] <= -0.5\ngini = 0.44\nsamples = 52\nvalue = [17, 35]"] ;
77 -> 79 ;
80 [label="gini = 0.0\nsamples = 2\nvalue = [2, 0]"] ;
79 -> 80 ;
81 [label="X[46] <= 0.5\ngini = 0.42\nsamples = 50\nvalue = [15, 35]"] ;
79 -> 81 ;
82 [label="X[99] <= 0.5\ngini = 0.349\nsamples = 40\nvalue = [9, 31]"] ;
81 -> 82 ;
83 [label="X[12] <= 0.5\ngini = 0.307\nsamples = 37\nvalue = [7, 30]"] ;
82 -> 83 ;
84 [label="X[75] <= -0.5\ngini = 0.251\nsamples = 34\nvalue = [5, 29]"] ;
83 -> 84 ;
85 [label="gini = 0.0\nsamples = 1\nvalue = [1, 0]"] ;
84 -> 85 ;
86 [label="X[32] <= -0.5\ngini = 0.213\nsamples = 33\nvalue = [4, 29]"] ;
84 -> 86 ;
87 [label="gini = 0.0\nsamples = 1\nvalue = [1, 0]"] ;
86 -> 87 ;
88 [label="X[83] <= 0.5\ngini = 0.17\nsamples = 32\nvalue = [3, 29]"] ;
86 -> 88 ;
89 [label="X[6] <= -0.5\ngini = 0.121\nsamples = 31\nvalue = [2, 29]"] ;
88 -> 89 ;
90 [label="gini = 0.0\nsamples = 1\nvalue = [1, 0]"] ;
89 -> 90 ;
91 [label="X[44] <= 0.5\ngini = 0.064\nsamples = 30\nvalue = [1, 29]"] ;
89 -> 91 ;
92 [label="gini = 0.0\nsamples = 28\nvalue = [0, 28]"] ;
91 -> 92 ;
93 [label="X[106] <= 0.5\ngini = 0.5\nsamples = 2\nvalue = [1, 1]"] ;
91 -> 93 ;
94 [label="gini = 0.0\nsamples = 1\nvalue = [0, 1]"] ;
93 -> 94 ;
95 [label="gini = 0.0\nsamples = 1\nvalue = [1, 0]"] ;
93 -> 95 ;
96 [label="gini = 0.0\nsamples = 1\nvalue = [1, 0]"] ;
88 -> 96 ;
97 [label="X[8] <= -0.5\ngini = 0.444\nsamples = 3\nvalue = [2, 1]"] ;
83 -> 97 ;
98 [label="gini = 0.0\nsamples = 1\nvalue = [0, 1]"] ;
97 -> 98 ;
99 [label="gini = 0.0\nsamples = 2\nvalue = [2, 0]"] ;
97 -> 99 ;
100 [label="X[113] <= 0.5\ngini = 0.444\nsamples = 3\nvalue = [2, 1]"] ;
82 -> 100 ;
101 [label="gini = 0.0\nsamples = 2\nvalue = [2, 0]"] ;
100 -> 101 ;
102 [label="gini = 0.0\nsamples = 1\nvalue = [0, 1]"] ;
100 -> 102 ;
103 [label="X[27] <= 0.5\ngini = 0.48\nsamples = 10\nvalue = [6, 4]"] ;
81 -> 103 ;
104 [label="X[0] <= 155.5\ngini = 0.375\nsamples = 8\nvalue = [6, 2]"] ;
103 -> 104 ;
105 [label="gini = 0.0\nsamples = 5\nvalue = [5, 0]"] ;
104 -> 105 ;
106 [label="X[0] <= 201.5\ngini = 0.444\nsamples = 3\nvalue = [1, 2]"] ;
104 -> 106 ;
107 [label="gini = 0.0\nsamples = 2\nvalue = [0, 2]"] ;
106 -> 107 ;
108 [label="gini = 0.0\nsamples = 1\nvalue = [1, 0]"] ;
106 -> 108 ;
109 [label="gini = 0.0\nsamples = 2\nvalue = [0, 2]"] ;
103 -> 109 ;
110 [label="gini = 0.0\nsamples = 3\nvalue = [3, 0]"] ;
76 -> 110 ;
111 [label="gini = 0.0\nsamples = 3\nvalue = [3, 0]"] ;
75 -> 111 ;
112 [label="X[23] <= -0.5\ngini = 0.478\nsamples = 2846\nvalue = [1721, 1125]"] ;
74 -> 112 ;
113 [label="X[0] <= 154.5\ngini = 0.5\nsamples = 187\nvalue = [96, 91]"] ;
112 -> 113 ;
114 [label="X[16] <= -0.5\ngini = 0.488\nsamples = 95\nvalue = [40, 55]"] ;
113 -> 114 ;
115 [label="X[86] <= 0.5\ngini = 0.18\nsamples = 10\nvalue = [9, 1]"] ;
114 -> 115 ;
116 [label="gini = 0.0\nsamples = 9\nvalue = [9, 0]"] ;
115 -> 116 ;
117 [label="gini = 0.0\nsamples = 1\nvalue = [0, 1]"] ;
115 -> 117 ;
118 [label="X[88] <= 0.5\ngini = 0.463\nsamples = 85\nvalue = [31, 54]"] ;
114 -> 118 ;
119 [label="X[16] <= 0.5\ngini = 0.45\nsamples = 82\nvalue = [28, 54]"] ;
118 -> 119 ;
120 [label="X[34] <= 0.5\ngini = 0.479\nsamples = 68\nvalue = [27, 41]"] ;
119 -> 120 ;
121 [label="X[56] <= 0.5\ngini = 0.493\nsamples = 61\nvalue = [27, 34]"] ;
120 -> 121 ;
122 [label="X[30] <= -0.5\ngini = 0.485\nsamples = 58\nvalue = [24, 34]"] ;
121 -> 122 ;
123 [label="gini = 0.0\nsamples = 3\nvalue = [3, 0]"] ;
122 -> 123 ;
124 [label="X[19] <= 0.5\ngini = 0.472\nsamples = 55\nvalue = [21, 34]"] ;
122 -> 124 ;
125 [label="X[78] <= -0.5\ngini = 0.453\nsamples = 52\nvalue = [18, 34]"] ;
124 -> 125 ;
126 [label="gini = 0.0\nsamples = 2\nvalue = [2, 0]"] ;
125 -> 126 ;
127 [label="X[93] <= 0.5\ngini = 0.435\nsamples = 50\nvalue = [16, 34]"] ;
125 -> 127 ;
128 [label="X[12] <= -0.5\ngini = 0.413\nsamples = 48\nvalue = [14, 34]"] ;
127 -> 128 ;
129 [label="gini = 0.0\nsamples = 2\nvalue = [2, 0]"] ;
128 -> 129 ;
130 [label="X[66] <= -0.5\ngini = 0.386\nsamples = 46\nvalue = [12, 34]"] ;
128 -> 130 ;
131 [label="gini = 0.0\nsamples = 2\nvalue = [2, 0]"] ;
130 -> 131 ;
132 [label="X[4] <= -0.5\ngini = 0.351\nsamples = 44\nvalue = [10, 34]"] ;
130 -> 132 ;
133 [label="X[44] <= 0.5\ngini = 0.444\nsamples = 3\nvalue = [2, 1]"] ;
132 -> 133 ;
134 [label="gini = 0.0\nsamples = 2\nvalue = [2, 0]"] ;
133 -> 134 ;
135 [label="gini = 0.0\nsamples = 1\nvalue = [0, 1]"] ;
133 -> 135 ;
136 [label="X[50] <= 0.5\ngini = 0.314\nsamples = 41\nvalue = [8, 33]"] ;
132 -> 136 ;
137 [label="X[64] <= 0.5\ngini = 0.266\nsamples = 38\nvalue = [6, 32]"] ;
136 -> 137 ;
138 [label="X[45] <= 0.5\ngini = 0.234\nsamples = 37\nvalue = [5, 32]"] ;
137 -> 138 ;
139 [label="X[51] <= 0.5\ngini = 0.198\nsamples = 36\nvalue = [4, 32]"] ;
138 -> 139 ;
140 [label="X[25] <= -0.5\ngini = 0.157\nsamples = 35\nvalue = [3, 32]"] ;
139 -> 140 ;
141 [label="gini = 0.0\nsamples = 1\nvalue = [1, 0]"] ;
140 -> 141 ;
142 [label="X[58] <= 0.5\ngini = 0.111\nsamples = 34\nvalue = [2, 32]"] ;
140 -> 142 ;
143 [label="X[100] <= -0.5\ngini = 0.061\nsamples = 32\nvalue = [1, 31]"] ;
142 -> 143 ;
144 [label="X[12] <= 0.5\ngini = 0.5\nsamples = 2\nvalue = [1, 1]"] ;
143 -> 144 ;
145 [label="gini = 0.0\nsamples = 1\nvalue = [0, 1]"] ;
144 -> 145 ;
146 [label="gini = 0.0\nsamples = 1\nvalue = [1, 0]"] ;
144 -> 146 ;
147 [label="gini = 0.0\nsamples = 30\nvalue = [0, 30]"] ;
143 -> 147 ;
148 [label="X[28] <= -0.5\ngini = 0.5\nsamples = 2\nvalue = [1, 1]"] ;
142 -> 148 ;
149 [label="gini = 0.0\nsamples = 1\nvalue = [0, 1]"] ;
148 -> 149 ;
150 [label="gini = 0.0\nsamples = 1\nvalue = [1, 0]"] ;
148 -> 150 ;
151 [label="gini = 0.0\nsamples = 1\nvalue = [1, 0]"] ;
139 -> 151 ;
152 [label="gini = 0.0\nsamples = 1\nvalue = [1, 0]"] ;
138 -> 152 ;
153 [label="gini = 0.0\nsamples = 1\nvalue = [1, 0]"] ;
137 -> 153 ;
154 [label="X[107] <= -0.5\ngini = 0.444\nsamples = 3\nvalue = [2, 1]"] ;
136 -> 154 ;
155 [label="gini = 0.0\nsamples = 1\nvalue = [0, 1]"] ;
154 -> 155 ;
156 [label="gini = 0.0\nsamples = 2\nvalue = [2, 0]"] ;
154 -> 156 ;
157 [label="gini = 0.0\nsamples = 2\nvalue = [2, 0]"] ;
127 -> 157 ;
158 [label="gini = 0.0\nsamples = 3\nvalue = [3, 0]"] ;
124 -> 158 ;
159 [label="gini = 0.0\nsamples = 3\nvalue = [3, 0]"] ;
121 -> 159 ;
160 [label="gini = 0.0\nsamples = 7\nvalue = [0, 7]"] ;
120 -> 160 ;
161 [label="X[9] <= -0.5\ngini = 0.133\nsamples = 14\nvalue = [1, 13]"] ;
119 -> 161 ;
162 [label="gini = 0.0\nsamples = 1\nvalue = [1, 0]"] ;
161 -> 162 ;
163 [label="gini = 0.0\nsamples = 13\nvalue = [0, 13]"] ;
161 -> 163 ;
164 [label="gini = 0.0\nsamples = 3\nvalue = [3, 0]"] ;
118 -> 164 ;
165 [label="X[9] <= -0.5\ngini = 0.476\nsamples = 92\nvalue = [56, 36]"] ;
113 -> 165 ;
166 [label="gini = 0.0\nsamples = 5\nvalue = [0, 5]"] ;
165 -> 166 ;
167 [label="X[0] <= 155.5\ngini = 0.459\nsamples = 87\nvalue = [56, 31]"] ;
165 -> 167 ;
168 [label="gini = 0.0\nsamples = 10\nvalue = [10, 0]"] ;
167 -> 168 ;
169 [label="X[15] <= 0.5\ngini = 0.481\nsamples = 77\nvalue = [46, 31]"] ;
167 -> 169 ;
170 [label="X[101] <= 0.5\ngini = 0.47\nsamples = 74\nvalue = [46, 28]"] ;
169 -> 170 ;
171 [label="X[13] <= 0.5\ngini = 0.456\nsamples = 71\nvalue = [46, 25]"] ;
170 -> 171 ;
172 [label="X[30] <= -0.5\ngini = 0.43\nsamples = 64\nvalue = [44, 20]"] ;
171 -> 172 ;
173 [label="gini = 0.0\nsamples = 2\nvalue = [0, 2]"] ;
172 -> 173 ;
174 [label="X[22] <= -0.5\ngini = 0.412\nsamples = 62\nvalue = [44, 18]"] ;
172 -> 174 ;
175 [label="gini = 0.0\nsamples = 2\nvalue = [0, 2]"] ;
174 -> 175 ;
176 [label="X[13] <= -0.5\ngini = 0.391\nsamples = 60\nvalue = [44, 16]"] ;
174 -> 176 ;
177 [label="gini = 0.0\nsamples = 2\nvalue = [0, 2]"] ;
176 -> 177 ;
178 [label="X[46] <= -0.5\ngini = 0.366\nsamples = 58\nvalue = [44, 14]"] ;
176 -> 178 ;
179 [label="X[7] <= 0.5\ngini = 0.497\nsamples = 13\nvalue = [7, 6]"] ;
178 -> 179 ;
180 [label="X[93] <= 0.5\ngini = 0.375\nsamples = 8\nvalue = [6, 2]"] ;
179 -> 180 ;
181 [label="X[76] <= 0.5\ngini = 0.245\nsamples = 7\nvalue = [6, 1]"] ;
180 -> 181 ;
182 [label="gini = 0.0\nsamples = 6\nvalue = [6, 0]"] ;
181 -> 182 ;
183 [label="gini = 0.0\nsamples = 1\nvalue = [0, 1]"] ;
181 -> 183 ;
184 [label="gini = 0.0\nsamples = 1\nvalue = [0, 1]"] ;
180 -> 184 ;
185 [label="X[47] <= -0.5\ngini = 0.32\nsamples = 5\nvalue = [1, 4]"] ;
179 -> 185 ;
186 [label="gini = 0.0\nsamples = 1\nvalue = [1, 0]"] ;
185 -> 186 ;
187 [label="gini = 0.0\nsamples = 4\nvalue = [0, 4]"] ;
185 -> 187 ;
188 [label="X[30] <= 0.5\ngini = 0.292\nsamples = 45\nvalue = [37, 8]"] ;
178 -> 188 ;
189 [label="X[55] <= 0.5\ngini = 0.219\nsamples = 40\nvalue = [35, 5]"] ;
188 -> 189 ;
190 [label="X[25] <= 0.5\ngini = 0.111\nsamples = 34\nvalue = [32, 2]"] ;
189 -> 190 ;
191 [label="X[79] <= -0.5\ngini = 0.059\nsamples = 33\nvalue = [32, 1]"] ;
190 -> 191 ;
192 [label="gini = 0.0\nsamples = 1\nvalue = [0, 1]"] ;
191 -> 192 ;
193 [label="gini = 0.0\nsamples = 32\nvalue = [32, 0]"] ;
191 -> 193 ;
194 [label="gini = 0.0\nsamples = 1\nvalue = [0, 1]"] ;
190 -> 194 ;
195 [label="X[95] <= 0.5\ngini = 0.5\nsamples = 6\nvalue = [3, 3]"] ;
189 -> 195 ;
196 [label="X[88] <= -0.5\ngini = 0.375\nsamples = 4\nvalue = [1, 3]"] ;
195 -> 196 ;
197 [label="gini = 0.0\nsamples = 1\nvalue = [1, 0]"] ;
196 -> 197 ;
198 [label="gini = 0.0\nsamples = 3\nvalue = [0, 3]"] ;
196 -> 198 ;
199 [label="gini = 0.0\nsamples = 2\nvalue = [2, 0]"] ;
195 -> 199 ;
200 [label="X[34] <= 0.5\ngini = 0.48\nsamples = 5\nvalue = [2, 3]"] ;
188 -> 200 ;
201 [label="X[22] <= 0.5\ngini = 0.444\nsamples = 3\nvalue = [2, 1]"] ;
200 -> 201 ;
202 [label="gini = 0.0\nsamples = 2\nvalue = [2, 0]"] ;
201 -> 202 ;
203 [label="gini = 0.0\nsamples = 1\nvalue = [0, 1]"] ;
201 -> 203 ;
204 [label="gini = 0.0\nsamples = 2\nvalue = [0, 2]"] ;
200 -> 204 ;
205 [label="X[88] <= 0.5\ngini = 0.408\nsamples = 7\nvalue = [2, 5]"] ;
171 -> 205 ;
206 [label="X[34] <= -0.5\ngini = 0.278\nsamples = 6\nvalue = [1, 5]"] ;
205 -> 206 ;
207 [label="gini = 0.0\nsamples = 1\nvalue = [1, 0]"] ;
206 -> 207 ;
208 [label="gini = 0.0\nsamples = 5\nvalue = [0, 5]"] ;
206 -> 208 ;
209 [label="gini = 0.0\nsamples = 1\nvalue = [1, 0]"] ;
205 -> 209 ;
210 [label="gini = 0.0\nsamples = 3\nvalue = [0, 3]"] ;
170 -> 210 ;
211 [label="gini = 0.0\nsamples = 3\nvalue = [0, 3]"] ;
169 -> 211 ;
212 [label="X[14] <= 0.5\ngini = 0.475\nsamples = 2659\nvalue = [1625, 1034]"] ;
112 -> 212 ;
213 [label="X[18] <= 0.5\ngini = 0.478\nsamples = 2540\nvalue = [1538, 1002]"] ;
212 -> 213 ;
214 [label="X[96] <= 0.5\ngini = 0.48\nsamples = 2380\nvalue = [1426, 954]"] ;
213 -> 214 ;
215 [label="X[22] <= -0.5\ngini = 0.478\nsamples = 2257\nvalue = [1365, 892]"] ;
214 -> 215 ;
216 [label="X[23] <= 0.5\ngini = 0.375\nsamples = 60\nvalue = [45, 15]"] ;
215 -> 216 ;
217 [label="X[50] <= 0.5\ngini = 0.302\nsamples = 54\nvalue = [44, 10]"] ;
216 -> 217 ;
218 [label="X[55] <= 0.5\ngini = 0.26\nsamples = 52\nvalue = [44, 8]"] ;
217 -> 218 ;
219 [label="X[69] <= 0.5\ngini = 0.211\nsamples = 50\nvalue = [44, 6]"] ;
218 -> 219 ;
220 [label="X[84] <= 0.5\ngini = 0.124\nsamples = 45\nvalue = [42, 3]"] ;
219 -> 220 ;
221 [label="X[57] <= 0.5\ngini = 0.087\nsamples = 44\nvalue = [42, 2]"] ;
220 -> 221 ;
222 [label="X[108] <= 0.5\ngini = 0.045\nsamples = 43\nvalue = [42, 1]"] ;
221 -> 222 ;
223 [label="gini = 0.0\nsamples = 40\nvalue = [40, 0]"] ;
222 -> 223 ;
224 [label="X[106] <= 0.5\ngini = 0.444\nsamples = 3\nvalue = [2, 1]"] ;
222 -> 224 ;
225 [label="gini = 0.0\nsamples = 1\nvalue = [0, 1]"] ;
224 -> 225 ;
226 [label="gini = 0.0\nsamples = 2\nvalue = [2, 0]"] ;
224 -> 226 ;
227 [label="gini = 0.0\nsamples = 1\nvalue = [0, 1]"] ;
221 -> 227 ;
228 [label="gini = 0.0\nsamples = 1\nvalue = [0, 1]"] ;
220 -> 228 ;
229 [label="X[20] <= -0.5\ngini = 0.48\nsamples = 5\nvalue = [2, 3]"] ;
219 -> 229 ;
230 [label="gini = 0.0\nsamples = 2\nvalue = [0, 2]"] ;
229 -> 230 ;
231 [label="X[64] <= -0.5\ngini = 0.444\nsamples = 3\nvalue = [2, 1]"] ;
229 -> 231 ;
232 [label="gini = 0.0\nsamples = 1\nvalue = [0, 1]"] ;
231 -> 232 ;
233 [label="gini = 0.0\nsamples = 2\nvalue = [2, 0]"] ;
231 -> 233 ;
234 [label="gini = 0.0\nsamples = 2\nvalue = [0, 2]"] ;
218 -> 234 ;
235 [label="gini = 0.0\nsamples = 2\nvalue = [0, 2]"] ;
217 -> 235 ;
236 [label="X[4] <= 0.5\ngini = 0.278\nsamples = 6\nvalue = [1, 5]"] ;
216 -> 236 ;
237 [label="gini = 0.0\nsamples = 5\nvalue = [0, 5]"] ;
236 -> 237 ;
238 [label="gini = 0.0\nsamples = 1\nvalue = [1, 0]"] ;
236 -> 238 ;
239 [label="X[79] <= 0.5\ngini = 0.48\nsamples = 2197\nvalue = [1320, 877]"] ;
215 -> 239 ;
240 [label="X[1] <= 1.5\ngini = 0.481\nsamples = 2167\nvalue = [1296, 871]"] ;
239 -> 240 ;
241 [label="X[0] <= 163.5\ngini = 0.49\nsamples = 42\nvalue = [18, 24]"] ;
240 -> 241 ;
242 [label="X[57] <= -0.5\ngini = 0.266\nsamples = 19\nvalue = [3, 16]"] ;
241 -> 242 ;
243 [label="gini = 0.0\nsamples = 2\nvalue = [2, 0]"] ;
242 -> 243 ;
244 [label="X[3] <= 0.5\ngini = 0.111\nsamples = 17\nvalue = [1, 16]"] ;
242 -> 244 ;
245 [label="gini = 0.0\nsamples = 16\nvalue = [0, 16]"] ;
244 -> 245 ;
246 [label="gini = 0.0\nsamples = 1\nvalue = [1, 0]"] ;
244 -> 246 ;
247 [label="X[50] <= 0.5\ngini = 0.454\nsamples = 23\nvalue = [15, 8]"] ;
241 -> 247 ;
248 [label="X[104] <= 0.5\ngini = 0.375\nsamples = 20\nvalue = [15, 5]"] ;
247 -> 248 ;
249 [label="X[114] <= 0.5\ngini = 0.278\nsamples = 18\nvalue = [15, 3]"] ;
248 -> 249 ;
250 [label="X[75] <= -0.5\ngini = 0.124\nsamples = 15\nvalue = [14, 1]"] ;
249 -> 250 ;
251 [label="gini = 0.0\nsamples = 1\nvalue = [0, 1]"] ;
250 -> 251 ;
252 [label="gini = 0.0\nsamples = 14\nvalue = [14, 0]"] ;
250 -> 252 ;
253 [label="X[56] <= 0.5\ngini = 0.444\nsamples = 3\nvalue = [1, 2]"] ;
249 -> 253 ;
254 [label="gini = 0.0\nsamples = 1\nvalue = [1, 0]"] ;
253 -> 254 ;
255 [label="gini = 0.0\nsamples = 2\nvalue = [0, 2]"] ;
253 -> 255 ;
256 [label="gini = 0.0\nsamples = 2\nvalue = [0, 2]"] ;
248 -> 256 ;
257 [label="gini = 0.0\nsamples = 3\nvalue = [0, 3]"] ;
247 -> 257 ;
258 [label="X[82] <= -0.5\ngini = 0.479\nsamples = 2125\nvalue = [1278, 847]"] ;
240 -> 258 ;
259 [label="X[74] <= 0.5\ngini = 0.426\nsamples = 13\nvalue = [4, 9]"] ;
258 -> 259 ;
260 [label="X[25] <= -0.5\ngini = 0.375\nsamples = 12\nvalue = [3, 9]"] ;
259 -> 260 ;
261 [label="gini = 0.0\nsamples = 1\nvalue = [1, 0]"] ;
260 -> 261 ;
262 [label="X[69] <= 0.5\ngini = 0.298\nsamples = 11\nvalue = [2, 9]"] ;
260 -> 262 ;
263 [label="X[28] <= -0.5\ngini = 0.18\nsamples = 10\nvalue = [1, 9]"] ;
262 -> 263 ;
264 [label="gini = 0.0\nsamples = 1\nvalue = [1, 0]"] ;
263 -> 264 ;
265 [label="gini = 0.0\nsamples = 9\nvalue = [0, 9]"] ;
263 -> 265 ;
266 [label="gini = 0.0\nsamples = 1\nvalue = [1, 0]"] ;
262 -> 266 ;
267 [label="gini = 0.0\nsamples = 1\nvalue = [1, 0]"] ;
259 -> 267 ;
268 [label="X[112] <= 0.5\ngini = 0.479\nsamples = 2112\nvalue = [1274, 838]"] ;
258 -> 268 ;
269 [label="X[83] <= -0.5\ngini = 0.477\nsamples = 2071\nvalue = [1256, 815]"] ;
268 -> 269 ;
270 [label="X[8] <= 0.5\ngini = 0.497\nsamples = 56\nvalue = [26, 30]"] ;
269 -> 270 ;
271 [label="X[55] <= 0.5\ngini = 0.5\nsamples = 51\nvalue = [26, 25]"] ;
270 -> 271 ;
272 [label="X[56] <= 0.5\ngini = 0.494\nsamples = 47\nvalue = [26, 21]"] ;
271 -> 272 ;
273 [label="X[24] <= -0.5\ngini = 0.483\nsamples = 44\nvalue = [26, 18]"] ;
272 -> 273 ;
274 [label="gini = 0.0\nsamples = 3\nvalue = [0, 3]"] ;
273 -> 274 ;
275 [label="X[75] <= 0.5\ngini = 0.464\nsamples = 41\nvalue = [26, 15]"] ;
273 -> 275 ;
276 [label="X[101] <= 0.5\ngini = 0.415\nsamples = 34\nvalue = [24, 10]"] ;
275 -> 276 ;
277 [label="X[0] <= 195.5\ngini = 0.375\nsamples = 32\nvalue = [24, 8]"] ;
276 -> 277 ;
278 [label="X[42] <= 0.5\ngini = 0.278\nsamples = 24\nvalue = [20, 4]"] ;
277 -> 278 ;
279 [label="X[71] <= 0.5\ngini = 0.227\nsamples = 23\nvalue = [20, 3]"] ;
278 -> 279 ;
280 [label="X[84] <= -0.5\ngini = 0.165\nsamples = 22\nvalue = [20, 2]"] ;
279 -> 280 ;
281 [label="gini = 0.0\nsamples = 1\nvalue = [0, 1]"] ;
280 -> 281 ;
282 [label="X[66] <= -0.5\ngini = 0.091\nsamples = 21\nvalue = [20, 1]"] ;
280 -> 282 ;
283 [label="gini = 0.0\nsamples = 1\nvalue = [0, 1]"] ;
282 -> 283 ;
284 [label="gini = 0.0\nsamples = 20\nvalue = [20, 0]"] ;
282 -> 284 ;
285 [label="gini = 0.0\nsamples = 1\nvalue = [0, 1]"] ;
279 -> 285 ;
286 [label="gini = 0.0\nsamples = 1\nvalue = [0, 1]"] ;
278 -> 286 ;
287 [label="X[16] <= 0.5\ngini = 0.5\nsamples = 8\nvalue = [4, 4]"] ;
277 -> 287 ;
288 [label="X[32] <= 0.5\ngini = 0.32\nsamples = 5\nvalue = [4, 1]"] ;
287 -> 288 ;
289 [label="gini = 0.0\nsamples = 4\nvalue = [4, 0]"] ;
288 -> 289 ;
290 [label="gini = 0.0\nsamples = 1\nvalue = [0, 1]"] ;
288 -> 290 ;
291 [label="gini = 0.0\nsamples = 3\nvalue = [0, 3]"] ;
287 -> 291 ;
292 [label="gini = 0.0\nsamples = 2\nvalue = [0, 2]"] ;
276 -> 292 ;
293 [label="X[65] <= -0.5\ngini = 0.408\nsamples = 7\nvalue = [2, 5]"] ;
275 -> 293 ;
294 [label="gini = 0.0\nsamples = 1\nvalue = [1, 0]"] ;
293 -> 294 ;
295 [label="X[8] <= -0.5\ngini = 0.278\nsamples = 6\nvalue = [1, 5]"] ;
293 -> 295 ;
296 [label="gini = 0.0\nsamples = 1\nvalue = [1, 0]"] ;
295 -> 296 ;
297 [label="gini = 0.0\nsamples = 5\nvalue = [0, 5]"] ;
295 -> 297 ;
298 [label="gini = 0.0\nsamples = 3\nvalue = [0, 3]"] ;
272 -> 298 ;
299 [label="gini = 0.0\nsamples = 4\nvalue = [0, 4]"] ;
271 -> 299 ;
300 [label="gini = 0.0\nsamples = 5\nvalue = [0, 5]"] ;
270 -> 300 ;
301 [label="X[17] <= 0.5\ngini = 0.476\nsamples = 2015\nvalue = [1230, 785]"] ;
269 -> 301 ;
302 [label="X[12] <= 0.5\ngini = 0.474\nsamples = 1969\nvalue = [1209, 760]"] ;
301 -> 302 ;
303 [label="X[25] <= -0.5\ngini = 0.471\nsamples = 1853\nvalue = [1148, 705]"] ;
302 -> 303 ;
304 [label="X[48] <= 0.5\ngini = 0.5\nsamples = 59\nvalue = [29, 30]"] ;
303 -> 304 ;
305 [label="X[10] <= 0.5\ngini = 0.496\nsamples = 53\nvalue = [29, 24]"] ;
304 -> 305 ;
306 [label="X[108] <= 0.5\ngini = 0.482\nsamples = 47\nvalue = [28, 19]"] ;
305 -> 306 ;
307 [label="X[70] <= -0.5\ngini = 0.463\nsamples = 44\nvalue = [28, 16]"] ;
306 -> 307 ;
308 [label="gini = 0.0\nsamples = 3\nvalue = [0, 3]"] ;
307 -> 308 ;
309 [label="X[51] <= 0.5\ngini = 0.433\nsamples = 41\nvalue = [28, 13]"] ;
307 -> 309 ;
310 [label="X[23] <= 0.5\ngini = 0.405\nsamples = 39\nvalue = [28, 11]"] ;
309 -> 310 ;
311 [label="X[105] <= -0.5\ngini = 0.312\nsamples = 31\nvalue = [25, 6]"] ;
310 -> 311 ;
312 [label="gini = 0.0\nsamples = 2\nvalue = [0, 2]"] ;
311 -> 312 ;
313 [label="X[11] <= -0.5\ngini = 0.238\nsamples = 29\nvalue = [25, 4]"] ;
311 -> 313 ;
314 [label="X[106] <= 0.5\ngini = 0.49\nsamples = 7\nvalue = [4, 3]"] ;
313 -> 314 ;
315 [label="X[88] <= 0.5\ngini = 0.32\nsamples = 5\nvalue = [4, 1]"] ;
314 -> 315 ;
316 [label="gini = 0.0\nsamples = 4\nvalue = [4, 0]"] ;
315 -> 316 ;
317 [label="gini = 0.0\nsamples = 1\nvalue = [0, 1]"] ;
315 -> 317 ;
318 [label="gini = 0.0\nsamples = 2\nvalue = [0, 2]"] ;
314 -> 318 ;
319 [label="X[113] <= 0.5\ngini = 0.087\nsamples = 22\nvalue = [21, 1]"] ;
313 -> 319 ;
320 [label="gini = 0.0\nsamples = 21\nvalue = [21, 0]"] ;
319 -> 320 ;
321 [label="gini = 0.0\nsamples = 1\nvalue = [0, 1]"] ;
319 -> 321 ;
322 [label="X[2] <= 2.5\ngini = 0.469\nsamples = 8\nvalue = [3, 5]"] ;
310 -> 322 ;
323 [label="gini = 0.0\nsamples = 2\nvalue = [2, 0]"] ;
322 -> 323 ;
324 [label="X[37] <= -0.5\ngini = 0.278\nsamples = 6\nvalue = [1, 5]"] ;
322 -> 324 ;
325 [label="gini = 0.0\nsamples = 1\nvalue = [1, 0]"] ;
324 -> 325 ;
326 [label="gini = 0.0\nsamples = 5\nvalue = [0, 5]"] ;
324 -> 326 ;
327 [label="gini = 0.0\nsamples = 2\nvalue = [0, 2]"] ;
309 -> 327 ;
328 [label="gini = 0.0\nsamples = 3\nvalue = [0, 3]"] ;
306 -> 328 ;
329 [label="X[41] <= 0.5\ngini = 0.278\nsamples = 6\nvalue = [1, 5]"] ;
305 -> 329 ;
330 [label="gini = 0.0\nsamples = 5\nvalue = [0, 5]"] ;
329 -> 330 ;
331 [label="gini = 0.0\nsamples = 1\nvalue = [1, 0]"] ;
329 -> 331 ;
332 [label="gini = 0.0\nsamples = 6\nvalue = [0, 6]"] ;
304 -> 332 ;
333 [label="X[75] <= -0.5\ngini = 0.469\nsamples = 1794\nvalue = [1119, 675]"] ;
303 -> 333 ;
334 [label="X[38] <= 0.5\ngini = 0.499\nsamples = 109\nvalue = [57, 52]"] ;
333 -> 334 ;
335 [label="X[46] <= 0.5\ngini = 0.499\nsamples = 98\nvalue = [47, 51]"] ;
334 -> 335 ;
336 [label="X[72] <= -0.5\ngini = 0.485\nsamples = 75\nvalue = [31, 44]"] ;
335 -> 336 ;
337 [label="gini = 0.0\nsamples = 4\nvalue = [4, 0]"] ;
336 -> 337 ;
338 [label="X[1] <= 8.5\ngini = 0.471\nsamples = 71\nvalue = [27, 44]"] ;
336 -> 338 ;
339 [label="X[37] <= 0.5\ngini = 0.488\nsamples = 64\nvalue = [27, 37]"] ;
338 -> 339 ;
340 [label="X[106] <= -0.5\ngini = 0.471\nsamples = 58\nvalue = [22, 36]"] ;
339 -> 340 ;
341 [label="X[100] <= 0.5\ngini = 0.32\nsamples = 5\nvalue = [4, 1]"] ;
340 -> 341 ;
342 [label="gini = 0.0\nsamples = 4\nvalue = [4, 0]"] ;
341 -> 342 ;
343 [label="gini = 0.0\nsamples = 1\nvalue = [0, 1]"] ;
341 -> 343 ;
344 [label="X[104] <= -0.5\ngini = 0.449\nsamples = 53\nvalue = [18, 35]"] ;
340 -> 344 ;
345 [label="gini = 0.0\nsamples = 2\nvalue = [2, 0]"] ;
344 -> 345 ;
346 [label="X[60] <= 0.5\ngini = 0.431\nsamples = 51\nvalue = [16, 35]"] ;
344 -> 346 ;
347 [label="X[99] <= 0.5\ngini = 0.408\nsamples = 49\nvalue = [14, 35]"] ;
346 -> 347 ;
348 [label="X[61] <= 0.5\ngini = 0.38\nsamples = 47\nvalue = [12, 35]"] ;
347 -> 348 ;
349 [label="X[27] <= -0.5\ngini = 0.364\nsamples = 46\nvalue = [11, 35]"] ;
348 -> 349 ;
350 [label="gini = 0.0\nsamples = 1\nvalue = [1, 0]"] ;
349 -> 350 ;
351 [label="X[90] <= 0.5\ngini = 0.346\nsamples = 45\nvalue = [10, 35]"] ;
349 -> 351 ;
352 [label="X[29] <= 0.5\ngini = 0.308\nsamples = 42\nvalue = [8, 34]"] ;
351 -> 352 ;
353 [label="X[35] <= 0.5\ngini = 0.283\nsamples = 41\nvalue = [7, 34]"] ;
352 -> 353 ;
354 [label="X[105] <= 0.5\ngini = 0.255\nsamples = 40\nvalue = [6, 34]"] ;
353 -> 354 ;
355 [label="X[67] <= 0.5\ngini = 0.224\nsamples = 39\nvalue = [5, 34]"] ;
354 -> 355 ;
356 [label="X[74] <= 0.5\ngini = 0.188\nsamples = 38\nvalue = [4, 34]"] ;
355 -> 356 ;
357 [label="X[66] <= 0.5\ngini = 0.149\nsamples = 37\nvalue = [3, 34]"] ;
356 -> 357 ;
358 [label="X[23] <= 0.5\ngini = 0.105\nsamples = 36\nvalue = [2, 34]"] ;
357 -> 358 ;
359 [label="X[31] <= -0.5\ngini = 0.057\nsamples = 34\nvalue = [1, 33]"] ;
358 -> 359 ;
360 [label="gini = 0.0\nsamples = 1\nvalue = [1, 0]"] ;
359 -> 360 ;
361 [label="gini = 0.0\nsamples = 33\nvalue = [0, 33]"] ;
359 -> 361 ;
362 [label="X[18] <= -0.5\ngini = 0.5\nsamples = 2\nvalue = [1, 1]"] ;
358 -> 362 ;
363 [label="gini = 0.0\nsamples = 1\nvalue = [0, 1]"] ;
362 -> 363 ;
364 [label="gini = 0.0\nsamples = 1\nvalue = [1, 0]"] ;
362 -> 364 ;
365 [label="gini = 0.0\nsamples = 1\nvalue = [1, 0]"] ;
357 -> 365 ;
366 [label="gini = 0.0\nsamples = 1\nvalue = [1, 0]"] ;
356 -> 366 ;
367 [label="gini = 0.0\nsamples = 1\nvalue = [1, 0]"] ;
355 -> 367 ;
368 [label="gini = 0.0\nsamples = 1\nvalue = [1, 0]"] ;
354 -> 368 ;
369 [label="gini = 0.0\nsamples = 1\nvalue = [1, 0]"] ;
353 -> 369 ;
370 [label="gini = 0.0\nsamples = 1\nvalue = [1, 0]"] ;
352 -> 370 ;
371 [label="X[46] <= -0.5\ngini = 0.444\nsamples = 3\nvalue = [2, 1]"] ;
351 -> 371 ;
372 [label="gini = 0.0\nsamples = 1\nvalue = [0, 1]"] ;
371 -> 372 ;
373 [label="gini = 0.0\nsamples = 2\nvalue = [2, 0]"] ;
371 -> 373 ;
374 [label="gini = 0.0\nsamples = 1\nvalue = [1, 0]"] ;
348 -> 374 ;
375 [label="gini = 0.0\nsamples = 2\nvalue = [2, 0]"] ;
347 -> 375 ;
376 [label="gini = 0.0\nsamples = 2\nvalue = [2, 0]"] ;
346 -> 376 ;
377 [label="X[46] <= -0.5\ngini = 0.278\nsamples = 6\nvalue = [5, 1]"] ;
339 -> 377 ;
378 [label="gini = 0.0\nsamples = 1\nvalue = [0, 1]"] ;
377 -> 378 ;
379 [label="gini = 0.0\nsamples = 5\nvalue = [5, 0]"] ;
377 -> 379 ;
380 [label="gini = 0.0\nsamples = 7\nvalue = [0, 7]"] ;
338 -> 380 ;
381 [label="X[104] <= -0.5\ngini = 0.423\nsamples = 23\nvalue = [16, 7]"] ;
335 -> 381 ;
382 [label="gini = 0.0\nsamples = 2\nvalue = [0, 2]"] ;
381 -> 382 ;
383 [label="X[1] <= 4.0\ngini = 0.363\nsamples = 21\nvalue = [16, 5]"] ;
381 -> 383 ;
384 [label="X[90] <= 0.5\ngini = 0.208\nsamples = 17\nvalue = [15, 2]"] ;
383 -> 384 ;
385 [label="X[37] <= 0.5\ngini = 0.117\nsamples = 16\nvalue = [15, 1]"] ;
384 -> 385 ;
386 [label="gini = 0.0\nsamples = 15\nvalue = [15, 0]"] ;
385 -> 386 ;
387 [label="gini = 0.0\nsamples = 1\nvalue = [0, 1]"] ;
385 -> 387 ;
388 [label="gini = 0.0\nsamples = 1\nvalue = [0, 1]"] ;
384 -> 388 ;
389 [label="X[8] <= 0.5\ngini = 0.375\nsamples = 4\nvalue = [1, 3]"] ;
383 -> 389 ;
390 [label="gini = 0.0\nsamples = 3\nvalue = [0, 3]"] ;
389 -> 390 ;
391 [label="gini = 0.0\nsamples = 1\nvalue = [1, 0]"] ;
389 -> 391 ;
392 [label="X[42] <= 0.5\ngini = 0.165\nsamples = 11\nvalue = [10, 1]"] ;
334 -> 392 ;
393 [label="gini = 0.0\nsamples = 10\nvalue = [10, 0]"] ;
392 -> 393 ;
394 [label="gini = 0.0\nsamples = 1\nvalue = [0, 1]"] ;
392 -> 394 ;
395 [label="X[108] <= -0.5\ngini = 0.466\nsamples = 1685\nvalue = [1062, 623]"] ;
333 -> 395 ;
396 [label="X[12] <= -0.5\ngini = 0.5\nsamples = 63\nvalue = [32, 31]"] ;
395 -> 396 ;
397 [label="gini = 0.0\nsamples = 4\nvalue = [4, 0]"] ;
396 -> 397 ;
398 [label="X[23] <= 0.5\ngini = 0.499\nsamples = 59\nvalue = [28, 31]"] ;
396 -> 398 ;
399 [label="X[34] <= 0.5\ngini = 0.499\nsamples = 54\nvalue = [28, 26]"] ;
398 -> 399 ;
400 [label="X[38] <= 0.5\ngini = 0.485\nsamples = 46\nvalue = [27, 19]"] ;
399 -> 400 ;
401 [label="X[72] <= 0.5\ngini = 0.467\nsamples = 43\nvalue = [27, 16]"] ;
400 -> 401 ;
402 [label="X[9] <= -0.5\ngini = 0.45\nsamples = 41\nvalue = [27, 14]"] ;
401 -> 402 ;
403 [label="gini = 0.0\nsamples = 2\nvalue = [0, 2]"] ;
402 -> 403 ;
404 [label="X[69] <= -0.5\ngini = 0.426\nsamples = 39\nvalue = [27, 12]"] ;
402 -> 404 ;
405 [label="gini = 0.0\nsamples = 2\nvalue = [0, 2]"] ;
404 -> 405 ;
406 [label="X[36] <= -0.5\ngini = 0.394\nsamples = 37\nvalue = [27, 10]"] ;
404 -> 406 ;
407 [label="gini = 0.0\nsamples = 2\nvalue = [0, 2]"] ;
406 -> 407 ;
408 [label="X[101] <= 0.5\ngini = 0.353\nsamples = 35\nvalue = [27, 8]"] ;
406 -> 408 ;
409 [label="X[16] <= 0.5\ngini = 0.305\nsamples = 32\nvalue = [26, 6]"] ;
408 -> 409 ;
410 [label="X[69] <= 0.5\ngini = 0.204\nsamples = 26\nvalue = [23, 3]"] ;
409 -> 410 ;
411 [label="X[90] <= -0.5\ngini = 0.147\nsamples = 25\nvalue = [23, 2]"] ;
410 -> 411 ;
412 [label="gini = 0.0\nsamples = 1\nvalue = [0, 1]"] ;
411 -> 412 ;
413 [label="X[55] <= -0.5\ngini = 0.08\nsamples = 24\nvalue = [23, 1]"] ;
411 -> 413 ;
414 [label="gini = 0.0\nsamples = 1\nvalue = [0, 1]"] ;
413 -> 414 ;
415 [label="gini = 0.0\nsamples = 23\nvalue = [23, 0]"] ;
413 -> 415 ;
416 [label="gini = 0.0\nsamples = 1\nvalue = [0, 1]"] ;
410 -> 416 ;
417 [label="X[0] <= 154.5\ngini = 0.5\nsamples = 6\nvalue = [3, 3]"] ;
409 -> 417 ;
418 [label="gini = 0.0\nsamples = 2\nvalue = [2, 0]"] ;
417 -> 418 ;
419 [label="X[46] <= -0.5\ngini = 0.375\nsamples = 4\nvalue = [1, 3]"] ;
417 -> 419 ;
420 [label="gini = 0.0\nsamples = 1\nvalue = [1, 0]"] ;
419 -> 420 ;
421 [label="gini = 0.0\nsamples = 3\nvalue = [0, 3]"] ;
419 -> 421 ;
422 [label="X[43] <= 0.5\ngini = 0.444\nsamples = 3\nvalue = [1, 2]"] ;
408 -> 422 ;
423 [label="gini = 0.0\nsamples = 2\nvalue = [0, 2]"] ;
422 -> 423 ;
424 [label="gini = 0.0\nsamples = 1\nvalue = [1, 0]"] ;
422 -> 424 ;
425 [label="gini = 0.0\nsamples = 2\nvalue = [0, 2]"] ;
401 -> 425 ;
426 [label="gini = 0.0\nsamples = 3\nvalue = [0, 3]"] ;
400 -> 426 ;
427 [label="X[31] <= -0.5\ngini = 0.219\nsamples = 8\nvalue = [1, 7]"] ;
399 -> 427 ;
428 [label="gini = 0.0\nsamples = 1\nvalue = [1, 0]"] ;
427 -> 428 ;
429 [label="gini = 0.0\nsamples = 7\nvalue = [0, 7]"] ;
427 -> 429 ;
430 [label="gini = 0.0\nsamples = 5\nvalue = [0, 5]"] ;
398 -> 430 ;
431 [label="X[105] <= 0.5\ngini = 0.464\nsamples = 1622\nvalue = [1030, 592]"] ;
395 -> 431 ;
432 [label="X[10] <= -0.5\ngini = 0.461\nsamples = 1571\nvalue = [1006, 565]"] ;
431 -> 432 ;
433 [label="X[24] <= 0.5\ngini = 0.491\nsamples = 180\nvalue = [102, 78]"] ;
432 -> 433 ;
434 [label="X[38] <= 0.5\ngini = 0.497\nsamples = 165\nvalue = [89, 76]"] ;
433 -> 434 ;
435 [label="X[0] <= 231.5\ngini = 0.5\nsamples = 154\nvalue = [79, 75]"] ;
434 -> 435 ;
436 [label="X[29] <= 0.5\ngini = 0.5\nsamples = 147\nvalue = [72, 75]"] ;
435 -> 436 ;
437 [label="X[19] <= 0.5\ngini = 0.498\nsamples = 142\nvalue = [67, 75]"] ;
436 -> 437 ;
438 [label="X[86] <= 0.5\ngini = 0.495\nsamples = 137\nvalue = [62, 75]"] ;
437 -> 438 ;
439 [label="X[31] <= 0.5\ngini = 0.499\nsamples = 131\nvalue = [62, 69]"] ;
438 -> 439 ;
440 [label="X[100] <= 0.5\ngini = 0.496\nsamples = 127\nvalue = [58, 69]"] ;
439 -> 440 ;
441 [label="X[95] <= 0.5\ngini = 0.5\nsamples = 113\nvalue = [55, 58]"] ;
440 -> 441 ;
442 [label="X[37] <= -0.5\ngini = 0.494\nsamples = 101\nvalue = [45, 56]"] ;
441 -> 442 ;
443 [label="gini = 0.0\nsamples = 6\nvalue = [0, 6]"] ;
442 -> 443 ;
444 [label="X[101] <= 0.5\ngini = 0.499\nsamples = 95\nvalue = [45, 50]"] ;
442 -> 444 ;
445 [label="X[86] <= -0.5\ngini = 0.493\nsamples = 86\nvalue = [38, 48]"] ;
444 -> 445 ;
446 [label="X[47] <= 0.5\ngini = 0.278\nsamples = 6\nvalue = [5, 1]"] ;
445 -> 446 ;
447 [label="gini = 0.0\nsamples = 5\nvalue = [5, 0]"] ;
446 -> 447 ;
448 [label="gini = 0.0\nsamples = 1\nvalue = [0, 1]"] ;
446 -> 448 ;
449 [label="X[2] <= 2.5\ngini = 0.485\nsamples = 80\nvalue = [33, 47]"] ;
445 -> 449 ;
450 [label="X[8] <= 0.5\ngini = 0.499\nsamples = 54\nvalue = [26, 28]"] ;
449 -> 450 ;
451 [label="X[44] <= 0.5\ngini = 0.485\nsamples = 46\nvalue = [19, 27]"] ;
450 -> 451 ;
452 [label="X[90] <= 0.5\ngini = 0.464\nsamples = 41\nvalue = [15, 26]"] ;
451 -> 452 ;
453 [label="X[75] <= 0.5\ngini = 0.444\nsamples = 39\nvalue = [13, 26]"] ;
452 -> 453 ;
454 [label="X[108] <= 0.5\ngini = 0.418\nsamples = 37\nvalue = [11, 26]"] ;
453 -> 454 ;
455 [label="X[37] <= 0.5\ngini = 0.382\nsamples = 35\nvalue = [9, 26]"] ;
454 -> 455 ;
456 [label="X[72] <= 0.5\ngini = 0.293\nsamples = 28\nvalue = [5, 23]"] ;
455 -> 456 ;
457 [label="X[91] <= -0.5\ngini = 0.211\nsamples = 25\nvalue = [3, 22]"] ;
456 -> 457 ;
458 [label="gini = 0.0\nsamples = 1\nvalue = [1, 0]"] ;
457 -> 458 ;
459 [label="X[41] <= -0.5\ngini = 0.153\nsamples = 24\nvalue = [2, 22]"] ;
457 -> 459 ;
460 [label="gini = 0.0\nsamples = 1\nvalue = [1, 0]"] ;
459 -> 460 ;
461 [label="X[102] <= 0.5\ngini = 0.083\nsamples = 23\nvalue = [1, 22]"] ;
459 -> 461 ;
462 [label="gini = 0.0\nsamples = 21\nvalue = [0, 21]"] ;
461 -> 462 ;
463 [label="X[6] <= 0.5\ngini = 0.5\nsamples = 2\nvalue = [1, 1]"] ;
461 -> 463 ;
464 [label="gini = 0.0\nsamples = 1\nvalue = [0, 1]"] ;
463 -> 464 ;
465 [label="gini = 0.0\nsamples = 1\nvalue = [1, 0]"] ;
463 -> 465 ;
466 [label="X[62] <= 0.5\ngini = 0.444\nsamples = 3\nvalue = [2, 1]"] ;
456 -> 466 ;
467 [label="gini = 0.0\nsamples = 2\nvalue = [2, 0]"] ;
466 -> 467 ;
468 [label="gini = 0.0\nsamples = 1\nvalue = [0, 1]"] ;
466 -> 468 ;
469 [label="X[43] <= 0.5\ngini = 0.49\nsamples = 7\nvalue = [4, 3]"] ;
455 -> 469 ;
470 [label="X[4] <= -0.5\ngini = 0.375\nsamples = 4\nvalue = [1, 3]"] ;
469 -> 470 ;
471 [label="gini = 0.0\nsamples = 1\nvalue = [1, 0]"] ;
470 -> 471 ;
472 [label="gini = 0.0\nsamples = 3\nvalue = [0, 3]"] ;
470 -> 472 ;
473 [label="gini = 0.0\nsamples = 3\nvalue = [3, 0]"] ;
469 -> 473 ;
474 [label="gini = 0.0\nsamples = 2\nvalue = [2, 0]"] ;
454 -> 474 ;
475 [label="gini = 0.0\nsamples = 2\nvalue = [2, 0]"] ;
453 -> 475 ;
476 [label="gini = 0.0\nsamples = 2\nvalue = [2, 0]"] ;
452 -> 476 ;
477 [label="X[28] <= 0.5\ngini = 0.32\nsamples = 5\nvalue = [4, 1]"] ;
451 -> 477 ;
478 [label="gini = 0.0\nsamples = 4\nvalue = [4, 0]"] ;
477 -> 478 ;
479 [label="gini = 0.0\nsamples = 1\nvalue = [0, 1]"] ;
477 -> 479 ;
480 [label="X[104] <= -0.5\ngini = 0.219\nsamples = 8\nvalue = [7, 1]"] ;
450 -> 480 ;
481 [label="gini = 0.0\nsamples = 1\nvalue = [0, 1]"] ;
480 -> 481 ;
482 [label="gini = 0.0\nsamples = 7\nvalue = [7, 0]"] ;
480 -> 482 ;
483 [label="X[32] <= -0.5\ngini = 0.393\nsamples = 26\nvalue = [7, 19]"] ;
449 -> 483 ;
484 [label="gini = 0.0\nsamples = 2\nvalue = [2, 0]"] ;
483 -> 484 ;
485 [label="X[25] <= 0.5\ngini = 0.33\nsamples = 24\nvalue = [5, 19]"] ;
483 -> 485 ;
486 [label="X[67] <= 0.5\ngini = 0.245\nsamples = 21\nvalue = [3, 18]"] ;
485 -> 486 ;
487 [label="X[97] <= -0.5\ngini = 0.18\nsamples = 20\nvalue = [2, 18]"] ;
486 -> 487 ;
488 [label="gini = 0.0\nsamples = 1\nvalue = [1, 0]"] ;
487 -> 488 ;
489 [label="X[56] <= 0.5\ngini = 0.1\nsamples = 19\nvalue = [1, 18]"] ;
487 -> 489 ;
490 [label="gini = 0.0\nsamples = 17\nvalue = [0, 17]"] ;
489 -> 490 ;
491 [label="X[8] <= -0.5\ngini = 0.5\nsamples = 2\nvalue = [1, 1]"] ;
489 -> 491 ;
492 [label="gini = 0.0\nsamples = 1\nvalue = [1, 0]"] ;
491 -> 492 ;
493 [label="gini = 0.0\nsamples = 1\nvalue = [0, 1]"] ;
491 -> 493 ;
494 [label="gini = 0.0\nsamples = 1\nvalue = [1, 0]"] ;
486 -> 494 ;
495 [label="X[106] <= 0.0\ngini = 0.444\nsamples = 3\nvalue = [2, 1]"] ;
485 -> 495 ;
496 [label="gini = 0.0\nsamples = 1\nvalue = [0, 1]"] ;
495 -> 496 ;
497 [label="gini = 0.0\nsamples = 2\nvalue = [2, 0]"] ;
495 -> 497 ;
498 [label="X[0] <= 224.5\ngini = 0.346\nsamples = 9\nvalue = [7, 2]"] ;
444 -> 498 ;
499 [label="gini = 0.0\nsamples = 6\nvalue = [6, 0]"] ;
498 -> 499 ;
500 [label="X[23] <= 0.5\ngini = 0.444\nsamples = 3\nvalue = [1, 2]"] ;
498 -> 500 ;
501 [label="gini = 0.0\nsamples = 2\nvalue = [0, 2]"] ;
500 -> 501 ;
502 [label="gini = 0.0\nsamples = 1\nvalue = [1, 0]"] ;
500 -> 502 ;
503 [label="X[66] <= 0.5\ngini = 0.278\nsamples = 12\nvalue = [10, 2]"] ;
441 -> 503 ;
504 [label="X[28] <= -0.5\ngini = 0.165\nsamples = 11\nvalue = [10, 1]"] ;
503 -> 504 ;
505 [label="gini = 0.0\nsamples = 1\nvalue = [0, 1]"] ;
504 -> 505 ;
506 [label="gini = 0.0\nsamples = 10\nvalue = [10, 0]"] ;
504 -> 506 ;
507 [label="gini = 0.0\nsamples = 1\nvalue = [0, 1]"] ;
503 -> 507 ;
508 [label="X[37] <= -0.5\ngini = 0.337\nsamples = 14\nvalue = [3, 11]"] ;
440 -> 508 ;
509 [label="X[7] <= 0.5\ngini = 0.444\nsamples = 3\nvalue = [2, 1]"] ;
508 -> 509 ;
510 [label="gini = 0.0\nsamples = 2\nvalue = [2, 0]"] ;
509 -> 510 ;
511 [label="gini = 0.0\nsamples = 1\nvalue = [0, 1]"] ;
509 -> 511 ;
512 [label="X[84] <= -0.5\ngini = 0.165\nsamples = 11\nvalue = [1, 10]"] ;
508 -> 512 ;
513 [label="gini = 0.0\nsamples = 1\nvalue = [1, 0]"] ;
512 -> 513 ;
514 [label="gini = 0.0\nsamples = 10\nvalue = [0, 10]"] ;
512 -> 514 ;
515 [label="gini = 0.0\nsamples = 4\nvalue = [4, 0]"] ;
439 -> 515 ;
516 [label="gini = 0.0\nsamples = 6\nvalue = [0, 6]"] ;
438 -> 516 ;
517 [label="gini = 0.0\nsamples = 5\nvalue = [5, 0]"] ;
437 -> 517 ;
518 [label="gini = 0.0\nsamples = 5\nvalue = [5, 0]"] ;
436 -> 518 ;
519 [label="gini = 0.0\nsamples = 7\nvalue = [7, 0]"] ;
435 -> 519 ;
520 [label="X[101] <= -0.5\ngini = 0.165\nsamples = 11\nvalue = [10, 1]"] ;
434 -> 520 ;
521 [label="gini = 0.0\nsamples = 1\nvalue = [0, 1]"] ;
520 -> 521 ;
522 [label="gini = 0.0\nsamples = 10\nvalue = [10, 0]"] ;
520 -> 522 ;
523 [label="X[46] <= -0.5\ngini = 0.231\nsamples = 15\nvalue = [13, 2]"] ;
433 -> 523 ;
524 [label="gini = 0.0\nsamples = 2\nvalue = [0, 2]"] ;
523 -> 524 ;
525 [label="gini = 0.0\nsamples = 13\nvalue = [13, 0]"] ;
523 -> 525 ;
526 [label="X[38] <= 0.5\ngini = 0.455\nsamples = 1391\nvalue = [904, 487]"] ;
432 -> 526 ;
527 [label="X[77] <= 0.5\ngini = 0.45\nsamples = 1302\nvalue = [857, 445]"] ;
526 -> 527 ;
528 [label="X[115] <= -0.5\ngini = 0.444\nsamples = 1227\nvalue = [818, 409]"] ;
527 -> 528 ;
529 [label="X[35] <= 0.5\ngini = 0.32\nsamples = 5\nvalue = [1, 4]"] ;
528 -> 529 ;
530 [label="gini = 0.0\nsamples = 4\nvalue = [0, 4]"] ;
529 -> 530 ;
531 [label="gini = 0.0\nsamples = 1\nvalue = [1, 0]"] ;
529 -> 531 ;
532 [label="X[40] <= -0.5\ngini = 0.443\nsamples = 1222\nvalue = [817, 405]"] ;
528 -> 532 ;
533 [label="X[8] <= -0.5\ngini = 0.473\nsamples = 13\nvalue = [5, 8]"] ;
532 -> 533 ;
534 [label="gini = 0.0\nsamples = 2\nvalue = [2, 0]"] ;
533 -> 534 ;
535 [label="X[21] <= 0.5\ngini = 0.397\nsamples = 11\nvalue = [3, 8]"] ;
533 -> 535 ;
536 [label="X[15] <= -0.5\ngini = 0.32\nsamples = 10\nvalue = [2, 8]"] ;
535 -> 536 ;
537 [label="gini = 0.0\nsamples = 1\nvalue = [1, 0]"] ;
536 -> 537 ;
538 [label="X[20] <= -0.5\ngini = 0.198\nsamples = 9\nvalue = [1, 8]"] ;
536 -> 538 ;
539 [label="gini = 0.0\nsamples = 1\nvalue = [1, 0]"] ;
538 -> 539 ;
540 [label="gini = 0.0\nsamples = 8\nvalue = [0, 8]"] ;
538 -> 540 ;
541 [label="gini = 0.0\nsamples = 1\nvalue = [1, 0]"] ;
535 -> 541 ;
542 [label="X[43] <= 0.5\ngini = 0.441\nsamples = 1209\nvalue = [812, 397]"] ;
532 -> 542 ;
543 [label="X[0] <= 154.5\ngini = 0.448\nsamples = 1081\nvalue = [715, 366]"] ;
542 -> 543 ;
544 [label="X[31] <= -0.5\ngini = 0.466\nsamples = 577\nvalue = [364, 213]"] ;
543 -> 544 ;
545 [label="X[111] <= 0.5\ngini = 0.375\nsamples = 8\nvalue = [2, 6]"] ;
544 -> 545 ;
546 [label="gini = 0.0\nsamples = 6\nvalue = [0, 6]"] ;
545 -> 546 ;
547 [label="gini = 0.0\nsamples = 2\nvalue = [2, 0]"] ;
545 -> 547 ;
548 [label="X[34] <= -0.5\ngini = 0.463\nsamples = 569\nvalue = [362, 207]"] ;
544 -> 548 ;
549 [label="X[24] <= 0.5\ngini = 0.338\nsamples = 51\nvalue = [40, 11]"] ;
548 -> 549 ;
550 [label="X[47] <= 0.5\ngini = 0.278\nsamples = 48\nvalue = [40, 8]"] ;
549 -> 550 ;
551 [label="X[1] <= 5.5\ngini = 0.231\nsamples = 45\nvalue = [39, 6]"] ;
550 -> 551 ;
552 [label="X[55] <= -0.5\ngini = 0.142\nsamples = 39\nvalue = [36, 3]"] ;
551 -> 552 ;
553 [label="gini = 0.0\nsamples = 1\nvalue = [0, 1]"] ;
552 -> 553 ;
554 [label="X[62] <= -0.5\ngini = 0.1\nsamples = 38\nvalue = [36, 2]"] ;
552 -> 554 ;
555 [label="gini = 0.0\nsamples = 1\nvalue = [0, 1]"] ;
554 -> 555 ;
556 [label="X[69] <= 0.5\ngini = 0.053\nsamples = 37\nvalue = [36, 1]"] ;
554 -> 556 ;
557 [label="gini = 0.0\nsamples = 36\nvalue = [36, 0]"] ;
556 -> 557 ;
558 [label="gini = 0.0\nsamples = 1\nvalue = [0, 1]"] ;
556 -> 558 ;
559 [label="X[13] <= -0.5\ngini = 0.5\nsamples = 6\nvalue = [3, 3]"] ;
551 -> 559 ;
560 [label="gini = 0.0\nsamples = 2\nvalue = [2, 0]"] ;
559 -> 560 ;
561 [label="X[97] <= -0.5\ngini = 0.375\nsamples = 4\nvalue = [1, 3]"] ;
559 -> 561 ;
562 [label="gini = 0.0\nsamples = 1\nvalue = [1, 0]"] ;
561 -> 562 ;
563 [label="gini = 0.0\nsamples = 3\nvalue = [0, 3]"] ;
561 -> 563 ;
564 [label="X[56] <= -0.5\ngini = 0.444\nsamples = 3\nvalue = [1, 2]"] ;
550 -> 564 ;
565 [label="gini = 0.0\nsamples = 1\nvalue = [1, 0]"] ;
564 -> 565 ;
566 [label="gini = 0.0\nsamples = 2\nvalue = [0, 2]"] ;
564 -> 566 ;
567 [label="gini = 0.0\nsamples = 3\nvalue = [0, 3]"] ;
549 -> 567 ;
568 [label="X[15] <= 0.5\ngini = 0.47\nsamples = 518\nvalue = [322, 196]"] ;
548 -> 568 ;
569 [label="X[8] <= -0.5\ngini = 0.466\nsamples = 503\nvalue = [317, 186]"] ;
568 -> 569 ;
570 [label="X[84] <= 0.5\ngini = 0.329\nsamples = 53\nvalue = [42, 11]"] ;
569 -> 570 ;
571 [label="X[66] <= 0.5\ngini = 0.291\nsamples = 51\nvalue = [42, 9]"] ;
570 -> 571 ;
572 [label="X[43] <= -0.5\ngini = 0.245\nsamples = 49\nvalue = [42, 7]"] ;
571 -> 572 ;
573 [label="X[58] <= 0.5\ngini = 0.48\nsamples = 5\nvalue = [2, 3]"] ;
572 -> 573 ;
574 [label="X[6] <= -0.5\ngini = 0.444\nsamples = 3\nvalue = [2, 1]"] ;
573 -> 574 ;
575 [label="gini = 0.0\nsamples = 1\nvalue = [0, 1]"] ;
574 -> 575 ;
576 [label="gini = 0.0\nsamples = 2\nvalue = [2, 0]"] ;
574 -> 576 ;
577 [label="gini = 0.0\nsamples = 2\nvalue = [0, 2]"] ;
573 -> 577 ;
578 [label="X[12] <= -0.5\ngini = 0.165\nsamples = 44\nvalue = [40, 4]"] ;
572 -> 578 ;
579 [label="gini = 0.0\nsamples = 1\nvalue = [0, 1]"] ;
578 -> 579 ;
580 [label="X[70] <= 0.5\ngini = 0.13\nsamples = 43\nvalue = [40, 3]"] ;
578 -> 580 ;
581 [label="X[47] <= 0.5\ngini = 0.091\nsamples = 42\nvalue = [40, 2]"] ;
580 -> 581 ;
582 [label="X[72] <= 0.5\ngini = 0.048\nsamples = 41\nvalue = [40, 1]"] ;
581 -> 582 ;
583 [label="gini = 0.0\nsamples = 39\nvalue = [39, 0]"] ;
582 -> 583 ;
584 [label="X[76] <= -0.5\ngini = 0.5\nsamples = 2\nvalue = [1, 1]"] ;
582 -> 584 ;
585 [label="gini = 0.0\nsamples = 1\nvalue = [0, 1]"] ;
584 -> 585 ;
586 [label="gini = 0.0\nsamples = 1\nvalue = [1, 0]"] ;
584 -> 586 ;
587 [label="gini = 0.0\nsamples = 1\nvalue = [0, 1]"] ;
581 -> 587 ;
588 [label="gini = 0.0\nsamples = 1\nvalue = [0, 1]"] ;
580 -> 588 ;
589 [label="gini = 0.0\nsamples = 2\nvalue = [0, 2]"] ;
571 -> 589 ;
590 [label="gini = 0.0\nsamples = 2\nvalue = [0, 2]"] ;
570 -> 590 ;
591 [label="X[78] <= -0.5\ngini = 0.475\nsamples = 450\nvalue = [275, 175]"] ;
569 -> 591 ;
592 [label="X[37] <= 0.5\ngini = 0.397\nsamples = 11\nvalue = [3, 8]"] ;
591 -> 592 ;
593 [label="X[98] <= 0.5\ngini = 0.219\nsamples = 8\nvalue = [1, 7]"] ;
592 -> 593 ;
594 [label="gini = 0.0\nsamples = 7\nvalue = [0, 7]"] ;
593 -> 594 ;
595 [label="gini = 0.0\nsamples = 1\nvalue = [1, 0]"] ;
593 -> 595 ;
596 [label="X[13] <= 0.5\ngini = 0.444\nsamples = 3\nvalue = [2, 1]"] ;
592 -> 596 ;
597 [label="gini = 0.0\nsamples = 2\nvalue = [2, 0]"] ;
596 -> 597 ;
598 [label="gini = 0.0\nsamples = 1\nvalue = [0, 1]"] ;
596 -> 598 ;
599 [label="X[91] <= -0.5\ngini = 0.471\nsamples = 439\nvalue = [272, 167]"] ;
591 -> 599 ;
600 [label="X[76] <= 0.5\ngini = 0.278\nsamples = 6\nvalue = [1, 5]"] ;
599 -> 600 ;
601 [label="gini = 0.0\nsamples = 5\nvalue = [0, 5]"] ;
600 -> 601 ;
602 [label="gini = 0.0\nsamples = 1\nvalue = [1, 0]"] ;
600 -> 602 ;
603 [label="X[58] <= 0.5\ngini = 0.468\nsamples = 433\nvalue = [271, 162]"] ;
599 -> 603 ;
604 [label="X[89] <= 0.5\ngini = 0.474\nsamples = 409\nvalue = [251, 158]"] ;
603 -> 604 ;
605 [label="X[85] <= 0.5\ngini = 0.47\nsamples = 393\nvalue = [245, 148]"] ;
604 -> 605 ;
606 [label="X[19] <= 0.5\ngini = 0.467\nsamples = 388\nvalue = [244, 144]"] ;
605 -> 606 ;
607 [label="X[28] <= -0.5\ngini = 0.461\nsamples = 367\nvalue = [235, 132]"] ;
606 -> 607 ;
608 [label="X[0] <= 151.5\ngini = 0.484\nsamples = 17\nvalue = [7, 10]"] ;
607 -> 608 ;
609 [label="X[103] <= -0.5\ngini = 0.375\nsamples = 8\nvalue = [6, 2]"] ;
608 -> 609 ;
610 [label="gini = 0.0\nsamples = 1\nvalue = [0, 1]"] ;
609 -> 610 ;
611 [label="X[3] <= 0.5\ngini = 0.245\nsamples = 7\nvalue = [6, 1]"] ;
609 -> 611 ;
612 [label="gini = 0.0\nsamples = 6\nvalue = [6, 0]"] ;
611 -> 612 ;
613 [label="gini = 0.0\nsamples = 1\nvalue = [0, 1]"] ;
611 -> 613 ;
614 [label="X[1] <= 4.0\ngini = 0.198\nsamples = 9\nvalue = [1, 8]"] ;
608 -> 614 ;
615 [label="gini = 0.0\nsamples = 8\nvalue = [0, 8]"] ;
614 -> 615 ;
616 [label="gini = 0.0\nsamples = 1\nvalue = [1, 0]"] ;
614 -> 616 ;
617 [label="X[9] <= -0.5\ngini = 0.454\nsamples = 350\nvalue = [228, 122]"] ;
607 -> 617 ;
618 [label="X[4] <= -0.5\ngini = 0.495\nsamples = 20\nvalue = [9, 11]"] ;
617 -> 618 ;
619 [label="gini = 0.0\nsamples = 4\nvalue = [4, 0]"] ;
618 -> 619 ;
620 [label="X[14] <= -0.5\ngini = 0.43\nsamples = 16\nvalue = [5, 11]"] ;
618 -> 620 ;
621 [label="gini = 0.0\nsamples = 2\nvalue = [2, 0]"] ;
620 -> 621 ;
622 [label="X[52] <= 0.5\ngini = 0.337\nsamples = 14\nvalue = [3, 11]"] ;
620 -> 622 ;
623 [label="X[32] <= 0.5\ngini = 0.165\nsamples = 11\nvalue = [1, 10]"] ;
622 -> 623 ;
624 [label="gini = 0.0\nsamples = 10\nvalue = [0, 10]"] ;
623 -> 624 ;
625 [label="gini = 0.0\nsamples = 1\nvalue = [1, 0]"] ;
623 -> 625 ;
626 [label="X[78] <= 0.5\ngini = 0.444\nsamples = 3\nvalue = [2, 1]"] ;
622 -> 626 ;
627 [label="gini = 0.0\nsamples = 2\nvalue = [2, 0]"] ;
626 -> 627 ;
628 [label="gini = 0.0\nsamples = 1\nvalue = [0, 1]"] ;
626 -> 628 ;
629 [label="X[109] <= -0.5\ngini = 0.446\nsamples = 330\nvalue = [219, 111]"] ;
617 -> 629 ;
630 [label="gini = 0.0\nsamples = 2\nvalue = [0, 2]"] ;
629 -> 630 ;
631 [label="X[4] <= 0.5\ngini = 0.444\nsamples = 328\nvalue = [219, 109]"] ;
629 -> 631 ;
632 [label="X[58] <= -0.5\ngini = 0.457\nsamples = 295\nvalue = [191, 104]"] ;
631 -> 632 ;
633 [label="X[37] <= -0.5\ngini = 0.488\nsamples = 19\nvalue = [8, 11]"] ;
632 -> 633 ;
634 [label="gini = 0.0\nsamples = 2\nvalue = [2, 0]"] ;
633 -> 634 ;
635 [label="X[14] <= -0.5\ngini = 0.457\nsamples = 17\nvalue = [6, 11]"] ;
633 -> 635 ;
636 [label="gini = 0.0\nsamples = 2\nvalue = [2, 0]"] ;
635 -> 636 ;
637 [label="X[36] <= -0.5\ngini = 0.391\nsamples = 15\nvalue = [4, 11]"] ;
635 -> 637 ;
638 [label="X[62] <= -0.5\ngini = 0.444\nsamples = 3\nvalue = [2, 1]"] ;
637 -> 638 ;
639 [label="gini = 0.0\nsamples = 1\nvalue = [0, 1]"] ;
638 -> 639 ;
640 [label="gini = 0.0\nsamples = 2\nvalue = [2, 0]"] ;
638 -> 640 ;
641 [label="X[103] <= 0.5\ngini = 0.278\nsamples = 12\nvalue = [2, 10]"] ;
637 -> 641 ;
642 [label="X[44] <= 0.5\ngini = 0.165\nsamples = 11\nvalue = [1, 10]"] ;
641 -> 642 ;
643 [label="gini = 0.0\nsamples = 10\nvalue = [0, 10]"] ;
642 -> 643 ;
644 [label="gini = 0.0\nsamples = 1\nvalue = [1, 0]"] ;
642 -> 644 ;
645 [label="gini = 0.0\nsamples = 1\nvalue = [1, 0]"] ;
641 -> 645 ;
646 [label="X[41] <= 0.5\ngini = 0.447\nsamples = 276\nvalue = [183, 93]"] ;
632 -> 646 ;
647 [label="X[33] <= 0.5\ngini = 0.456\nsamples = 265\nvalue = [172, 93]"] ;
646 -> 647 ;
648 [label="X[90] <= 0.5\ngini = 0.45\nsamples = 260\nvalue = [171, 89]"] ;
647 -> 648 ;
649 [label="X[97] <= -0.5\ngini = 0.444\nsamples = 253\nvalue = [169, 84]"] ;
648 -> 649 ;
650 [label="X[15] <= -0.5\ngini = 0.444\nsamples = 6\nvalue = [2, 4]"] ;
649 -> 650 ;
651 [label="X[37] <= 0.5\ngini = 0.444\nsamples = 3\nvalue = [2, 1]"] ;
650 -> 651 ;
652 [label="gini = 0.0\nsamples = 2\nvalue = [2, 0]"] ;
651 -> 652 ;
653 [label="gini = 0.0\nsamples = 1\nvalue = [0, 1]"] ;
651 -> 653 ;
654 [label="gini = 0.0\nsamples = 3\nvalue = [0, 3]"] ;
650 -> 654 ;
655 [label="X[81] <= 0.5\ngini = 0.438\nsamples = 247\nvalue = [167, 80]"] ;
649 -> 655 ;
656 [label="X[55] <= 0.5\ngini = 0.445\nsamples = 239\nvalue = [159, 80]"] ;
655 -> 656 ;
657 [label="X[98] <= 0.5\ngini = 0.454\nsamples = 227\nvalue = [148, 79]"] ;
656 -> 657 ;
658 [label="X[0] <= 148.0\ngini = 0.461\nsamples = 219\nvalue = [140, 79]"] ;
657 -> 658 ;
659 [label="X[97] <= 0.5\ngini = 0.391\nsamples = 60\nvalue = [44, 16]"] ;
658 -> 659 ;
660 [label="X[24] <= 0.5\ngini = 0.366\nsamples = 58\nvalue = [44, 14]"] ;
659 -> 660 ;
661 [label="X[16] <= -0.5\ngini = 0.324\nsamples = 54\nvalue = [43, 11]"] ;
660 -> 661 ;
662 [label="X[106] <= -0.5\ngini = 0.48\nsamples = 5\nvalue = [2, 3]"] ;
661 -> 662 ;
663 [label="gini = 0.0\nsamples = 2\nvalue = [2, 0]"] ;
662 -> 663 ;
664 [label="gini = 0.0\nsamples = 3\nvalue = [0, 3]"] ;
662 -> 664 ;
665 [label="X[48] <= -0.5\ngini = 0.273\nsamples = 49\nvalue = [41, 8]"] ;
661 -> 665 ;
666 [label="X[32] <= 0.5\ngini = 0.444\nsamples = 3\nvalue = [1, 2]"] ;
665 -> 666 ;
667 [label="gini = 0.0\nsamples = 2\nvalue = [0, 2]"] ;
666 -> 667 ;
668 [label="gini = 0.0\nsamples = 1\nvalue = [1, 0]"] ;
666 -> 668 ;
669 [label="X[41] <= -0.5\ngini = 0.227\nsamples = 46\nvalue = [40, 6]"] ;
665 -> 669 ;
670 [label="gini = 0.0\nsamples = 1\nvalue = [0, 1]"] ;
669 -> 670 ;
671 [label="X[5] <= 0.5\ngini = 0.198\nsamples = 45\nvalue = [40, 5]"] ;
669 -> 671 ;
672 [label="X[52] <= 0.5\ngini = 0.165\nsamples = 44\nvalue = [40, 4]"] ;
671 -> 672 ;
673 [label="X[72] <= -0.5\ngini = 0.095\nsamples = 40\nvalue = [38, 2]"] ;
672 -> 673 ;
674 [label="gini = 0.0\nsamples = 1\nvalue = [0, 1]"] ;
673 -> 674 ;
675 [label="X[27] <= -0.5\ngini = 0.05\nsamples = 39\nvalue = [38, 1]"] ;
673 -> 675 ;
676 [label="X[51] <= 0.5\ngini = 0.5\nsamples = 2\nvalue = [1, 1]"] ;
675 -> 676 ;
677 [label="gini = 0.0\nsamples = 1\nvalue = [1, 0]"] ;
676 -> 677 ;
678 [label="gini = 0.0\nsamples = 1\nvalue = [0, 1]"] ;
676 -> 678 ;
679 [label="gini = 0.0\nsamples = 37\nvalue = [37, 0]"] ;
675 -> 679 ;
680 [label="X[0] <= 141.0\ngini = 0.5\nsamples = 4\nvalue = [2, 2]"] ;
672 -> 680 ;
681 [label="gini = 0.0\nsamples = 2\nvalue = [2, 0]"] ;
680 -> 681 ;
682 [label="gini = 0.0\nsamples = 2\nvalue = [0, 2]"] ;
680 -> 682 ;
683 [label="gini = 0.0\nsamples = 1\nvalue = [0, 1]"] ;
671 -> 683 ;
684 [label="X[28] <= 0.5\ngini = 0.375\nsamples = 4\nvalue = [1, 3]"] ;
660 -> 684 ;
685 [label="gini = 0.0\nsamples = 3\nvalue = [0, 3]"] ;
684 -> 685 ;
686 [label="gini = 0.0\nsamples = 1\nvalue = [1, 0]"] ;
684 -> 686 ;
687 [label="gini = 0.0\nsamples = 2\nvalue = [0, 2]"] ;
659 -> 687 ;
688 [label="X[3] <= 0.5\ngini = 0.478\nsamples = 159\nvalue = [96, 63]"] ;
658 -> 688 ;
689 [label="X[86] <= 0.5\ngini = 0.49\nsamples = 145\nvalue = [83, 62]"] ;
688 -> 689 ;
690 [label="X[4] <= -0.5\ngini = 0.482\nsamples = 138\nvalue = [82, 56]"] ;
689 -> 690 ;
691 [label="X[0] <= 153.5\ngini = 0.469\nsamples = 24\nvalue = [9, 15]"] ;
690 -> 691 ;
692 [label="X[46] <= 0.5\ngini = 0.499\nsamples = 19\nvalue = [9, 10]"] ;
691 -> 692 ;
693 [label="X[6] <= -0.5\ngini = 0.492\nsamples = 16\nvalue = [9, 7]"] ;
692 -> 693 ;
694 [label="gini = 0.0\nsamples = 2\nvalue = [0, 2]"] ;
693 -> 694 ;
695 [label="X[13] <= -0.5\ngini = 0.459\nsamples = 14\nvalue = [9, 5]"] ;
693 -> 695 ;
696 [label="gini = 0.0\nsamples = 2\nvalue = [0, 2]"] ;
695 -> 696 ;
697 [label="X[37] <= -0.5\ngini = 0.375\nsamples = 12\nvalue = [9, 3]"] ;
695 -> 697 ;
698 [label="X[2] <= 2.5\ngini = 0.444\nsamples = 3\nvalue = [1, 2]"] ;
697 -> 698 ;
699 [label="gini = 0.0\nsamples = 2\nvalue = [0, 2]"] ;
698 -> 699 ;
700 [label="gini = 0.0\nsamples = 1\nvalue = [1, 0]"] ;
698 -> 700 ;
701 [label="X[60] <= 0.5\ngini = 0.198\nsamples = 9\nvalue = [8, 1]"] ;
697 -> 701 ;
702 [label="gini = 0.0\nsamples = 8\nvalue = [8, 0]"] ;
701 -> 702 ;
703 [label="gini = 0.0\nsamples = 1\nvalue = [0, 1]"] ;
701 -> 703 ;
704 [label="gini = 0.0\nsamples = 3\nvalue = [0, 3]"] ;
692 -> 704 ;
705 [label="gini = 0.0\nsamples = 5\nvalue = [0, 5]"] ;
691 -> 705 ;
706 [label="X[8] <= 0.5\ngini = 0.461\nsamples = 114\nvalue = [73, 41]"] ;
690 -> 706 ;
707 [label="X[82] <= 0.5\ngini = 0.423\nsamples = 92\nvalue = [64, 28]"] ;
706 -> 707 ;
708 [label="X[21] <= -0.5\ngini = 0.411\nsamples = 90\nvalue = [64, 26]"] ;
707 -> 708 ;
709 [label="X[1] <= 5.5\ngini = 0.469\nsamples = 8\nvalue = [3, 5]"] ;
708 -> 709 ;
710 [label="X[46] <= -0.5\ngini = 0.278\nsamples = 6\nvalue = [1, 5]"] ;
709 -> 710 ;
711 [label="gini = 0.0\nsamples = 1\nvalue = [1, 0]"] ;
710 -> 711 ;
712 [label="gini = 0.0\nsamples = 5\nvalue = [0, 5]"] ;
710 -> 712 ;
713 [label="gini = 0.0\nsamples = 2\nvalue = [2, 0]"] ;
709 -> 713 ;
714 [label="X[23] <= 0.5\ngini = 0.381\nsamples = 82\nvalue = [61, 21]"] ;
708 -> 714 ;
715 [label="X[2] <= 2.5\ngini = 0.339\nsamples = 74\nvalue = [58, 16]"] ;
714 -> 715 ;
716 [label="X[69] <= -0.5\ngini = 0.241\nsamples = 50\nvalue = [43, 7]"] ;
715 -> 716 ;
717 [label="X[39] <= -0.5\ngini = 0.375\nsamples = 4\nvalue = [1, 3]"] ;
716 -> 717 ;
718 [label="gini = 0.0\nsamples = 1\nvalue = [1, 0]"] ;
717 -> 718 ;
719 [label="gini = 0.0\nsamples = 3\nvalue = [0, 3]"] ;
717 -> 719 ;
720 [label="X[49] <= 0.5\ngini = 0.159\nsamples = 46\nvalue = [42, 4]"] ;
716 -> 720 ;
721 [label="X[60] <= -0.5\ngini = 0.124\nsamples = 45\nvalue = [42, 3]"] ;
720 -> 721 ;
722 [label="X[30] <= 0.5\ngini = 0.5\nsamples = 4\nvalue = [2, 2]"] ;
721 -> 722 ;
723 [label="gini = 0.0\nsamples = 2\nvalue = [2, 0]"] ;
722 -> 723 ;
724 [label="gini = 0.0\nsamples = 2\nvalue = [0, 2]"] ;
722 -> 724 ;
725 [label="X[44] <= -0.5\ngini = 0.048\nsamples = 41\nvalue = [40, 1]"] ;
721 -> 725 ;
726 [label="X[6] <= -0.5\ngini = 0.375\nsamples = 4\nvalue = [3, 1]"] ;
725 -> 726 ;
727 [label="gini = 0.0\nsamples = 1\nvalue = [0, 1]"] ;
726 -> 727 ;
728 [label="gini = 0.0\nsamples = 3\nvalue = [3, 0]"] ;
726 -> 728 ;
729 [label="gini = 0.0\nsamples = 37\nvalue = [37, 0]"] ;
725 -> 729 ;
730 [label="gini = 0.0\nsamples = 1\nvalue = [0, 1]"] ;
720 -> 730 ;
731 [label="X[66] <= 0.5\ngini = 0.469\nsamples = 24\nvalue = [15, 9]"] ;
715 -> 731 ;
732 [label="X[0] <= 152.0\ngini = 0.434\nsamples = 22\nvalue = [15, 7]"] ;
731 -> 732 ;
733 [label="X[106] <= -0.5\ngini = 0.496\nsamples = 11\nvalue = [5, 6]"] ;
732 -> 733 ;
734 [label="gini = 0.0\nsamples = 3\nvalue = [3, 0]"] ;
733 -> 734 ;
735 [label="X[69] <= -0.5\ngini = 0.375\nsamples = 8\nvalue = [2, 6]"] ;
733 -> 735 ;
736 [label="gini = 0.0\nsamples = 2\nvalue = [2, 0]"] ;
735 -> 736 ;
737 [label="gini = 0.0\nsamples = 6\nvalue = [0, 6]"] ;
735 -> 737 ;
738 [label="X[114] <= 0.5\ngini = 0.165\nsamples = 11\nvalue = [10, 1]"] ;
732 -> 738 ;
739 [label="gini = 0.0\nsamples = 10\nvalue = [10, 0]"] ;
738 -> 739 ;
740 [label="gini = 0.0\nsamples = 1\nvalue = [0, 1]"] ;
738 -> 740 ;
741 [label="gini = 0.0\nsamples = 2\nvalue = [0, 2]"] ;
731 -> 741 ;
742 [label="X[2] <= 2.5\ngini = 0.469\nsamples = 8\nvalue = [3, 5]"] ;
714 -> 742 ;
743 [label="X[13] <= 0.5\ngini = 0.278\nsamples = 6\nvalue = [1, 5]"] ;
742 -> 743 ;
744 [label="gini = 0.0\nsamples = 5\nvalue = [0, 5]"] ;
743 -> 744 ;
745 [label="gini = 0.0\nsamples = 1\nvalue = [1, 0]"] ;
743 -> 745 ;
746 [label="gini = 0.0\nsamples = 2\nvalue = [2, 0]"] ;
742 -> 746 ;
747 [label="gini = 0.0\nsamples = 2\nvalue = [0, 2]"] ;
707 -> 747 ;
748 [label="X[92] <= 0.5\ngini = 0.483\nsamples = 22\nvalue = [9, 13]"] ;
706 -> 748 ;
749 [label="X[61] <= 0.5\ngini = 0.455\nsamples = 20\nvalue = [7, 13]"] ;
748 -> 749 ;
750 [label="X[88] <= -0.5\ngini = 0.401\nsamples = 18\nvalue = [5, 13]"] ;
749 -> 750 ;
751 [label="gini = 0.0\nsamples = 1\nvalue = [1, 0]"] ;
750 -> 751 ;
752 [label="X[76] <= -0.5\ngini = 0.36\nsamples = 17\nvalue = [4, 13]"] ;
750 -> 752 ;
753 [label="X[100] <= -0.5\ngini = 0.444\nsamples = 3\nvalue = [2, 1]"] ;
752 -> 753 ;
754 [label="gini = 0.0\nsamples = 1\nvalue = [0, 1]"] ;
753 -> 754 ;
755 [label="gini = 0.0\nsamples = 2\nvalue = [2, 0]"] ;
753 -> 755 ;
756 [label="X[99] <= -0.5\ngini = 0.245\nsamples = 14\nvalue = [2, 12]"] ;
752 -> 756 ;
757 [label="gini = 0.0\nsamples = 1\nvalue = [1, 0]"] ;
756 -> 757 ;
758 [label="X[78] <= 0.5\ngini = 0.142\nsamples = 13\nvalue = [1, 12]"] ;
756 -> 758 ;
759 [label="gini = 0.0\nsamples = 12\nvalue = [0, 12]"] ;
758 -> 759 ;
760 [label="gini = 0.0\nsamples = 1\nvalue = [1, 0]"] ;
758 -> 760 ;
761 [label="gini = 0.0\nsamples = 2\nvalue = [2, 0]"] ;
749 -> 761 ;
762 [label="gini = 0.0\nsamples = 2\nvalue = [2, 0]"] ;
748 -> 762 ;
763 [label="X[23] <= 0.5\ngini = 0.245\nsamples = 7\nvalue = [1, 6]"] ;
689 -> 763 ;
764 [label="gini = 0.0\nsamples = 6\nvalue = [0, 6]"] ;
763 -> 764 ;
765 [label="gini = 0.0\nsamples = 1\nvalue = [1, 0]"] ;
763 -> 765 ;
766 [label="X[64] <= -0.5\ngini = 0.133\nsamples = 14\nvalue = [13, 1]"] ;
688 -> 766 ;
767 [label="gini = 0.0\nsamples = 1\nvalue = [0, 1]"] ;
766 -> 767 ;
768 [label="gini = 0.0\nsamples = 13\nvalue = [13, 0]"] ;
766 -> 768 ;
769 [label="gini = 0.0\nsamples = 8\nvalue = [8, 0]"] ;
657 -> 769 ;
770 [label="X[111] <= -0.5\ngini = 0.153\nsamples = 12\nvalue = [11, 1]"] ;
656 -> 770 ;
771 [label="gini = 0.0\nsamples = 1\nvalue = [0, 1]"] ;
770 -> 771 ;
772 [label="gini = 0.0\nsamples = 11\nvalue = [11, 0]"] ;
770 -> 772 ;
773 [label="gini = 0.0\nsamples = 8\nvalue = [8, 0]"] ;
655 -> 773 ;
774 [label="X[13] <= 0.5\ngini = 0.408\nsamples = 7\nvalue = [2, 5]"] ;
648 -> 774 ;
775 [label="gini = 0.0\nsamples = 5\nvalue = [0, 5]"] ;
774 -> 775 ;
776 [label="gini = 0.0\nsamples = 2\nvalue = [2, 0]"] ;
774 -> 776 ;
777 [label="X[8] <= 0.5\ngini = 0.32\nsamples = 5\nvalue = [1, 4]"] ;
647 -> 777 ;
778 [label="gini = 0.0\nsamples = 4\nvalue = [0, 4]"] ;
777 -> 778 ;
779 [label="gini = 0.0\nsamples = 1\nvalue = [1, 0]"] ;
777 -> 779 ;
780 [label="gini = 0.0\nsamples = 11\nvalue = [11, 0]"] ;
646 -> 780 ;
781 [label="X[92] <= 0.5\ngini = 0.257\nsamples = 33\nvalue = [28, 5]"] ;
631 -> 781 ;
782 [label="X[93] <= 0.5\ngini = 0.219\nsamples = 32\nvalue = [28, 4]"] ;
781 -> 782 ;
783 [label="X[7] <= -0.5\ngini = 0.175\nsamples = 31\nvalue = [28, 3]"] ;
782 -> 783 ;
784 [label="gini = 0.0\nsamples = 1\nvalue = [0, 1]"] ;
783 -> 784 ;
785 [label="X[17] <= -0.5\ngini = 0.124\nsamples = 30\nvalue = [28, 2]"] ;
783 -> 785 ;
786 [label="gini = 0.0\nsamples = 1\nvalue = [0, 1]"] ;
785 -> 786 ;
787 [label="X[27] <= 0.5\ngini = 0.067\nsamples = 29\nvalue = [28, 1]"] ;
785 -> 787 ;
788 [label="gini = 0.0\nsamples = 27\nvalue = [27, 0]"] ;
787 -> 788 ;
789 [label="X[0] <= 142.0\ngini = 0.5\nsamples = 2\nvalue = [1, 1]"] ;
787 -> 789 ;
790 [label="gini = 0.0\nsamples = 1\nvalue = [1, 0]"] ;
789 -> 790 ;
791 [label="gini = 0.0\nsamples = 1\nvalue = [0, 1]"] ;
789 -> 791 ;
792 [label="gini = 0.0\nsamples = 1\nvalue = [0, 1]"] ;
782 -> 792 ;
793 [label="gini = 0.0\nsamples = 1\nvalue = [0, 1]"] ;
781 -> 793 ;
794 [label="X[92] <= 0.5\ngini = 0.49\nsamples = 21\nvalue = [9, 12]"] ;
606 -> 794 ;
795 [label="X[39] <= 0.5\ngini = 0.465\nsamples = 19\nvalue = [7, 12]"] ;
794 -> 795 ;
796 [label="X[52] <= 0.5\ngini = 0.415\nsamples = 17\nvalue = [5, 12]"] ;
795 -> 796 ;
797 [label="X[79] <= -0.5\ngini = 0.375\nsamples = 16\nvalue = [4, 12]"] ;
796 -> 797 ;
798 [label="gini = 0.0\nsamples = 1\nvalue = [1, 0]"] ;
797 -> 798 ;
799 [label="X[46] <= -0.5\ngini = 0.32\nsamples = 15\nvalue = [3, 12]"] ;
797 -> 799 ;
800 [label="gini = 0.0\nsamples = 1\nvalue = [1, 0]"] ;
799 -> 800 ;
801 [label="X[64] <= -0.5\ngini = 0.245\nsamples = 14\nvalue = [2, 12]"] ;
799 -> 801 ;
802 [label="gini = 0.0\nsamples = 1\nvalue = [1, 0]"] ;
801 -> 802 ;
803 [label="X[23] <= 0.5\ngini = 0.142\nsamples = 13\nvalue = [1, 12]"] ;
801 -> 803 ;
804 [label="gini = 0.0\nsamples = 12\nvalue = [0, 12]"] ;
803 -> 804 ;
805 [label="gini = 0.0\nsamples = 1\nvalue = [1, 0]"] ;
803 -> 805 ;
806 [label="gini = 0.0\nsamples = 1\nvalue = [1, 0]"] ;
796 -> 806 ;
807 [label="gini = 0.0\nsamples = 2\nvalue = [2, 0]"] ;
795 -> 807 ;
808 [label="gini = 0.0\nsamples = 2\nvalue = [2, 0]"] ;
794 -> 808 ;
809 [label="X[101] <= 0.5\ngini = 0.32\nsamples = 5\nvalue = [1, 4]"] ;
605 -> 809 ;
810 [label="gini = 0.0\nsamples = 4\nvalue = [0, 4]"] ;
809 -> 810 ;
811 [label="gini = 0.0\nsamples = 1\nvalue = [1, 0]"] ;
809 -> 811 ;
812 [label="X[2] <= 2.5\ngini = 0.469\nsamples = 16\nvalue = [6, 10]"] ;
604 -> 812 ;
813 [label="X[56] <= 0.5\ngini = 0.219\nsamples = 8\nvalue = [1, 7]"] ;
812 -> 813 ;
814 [label="gini = 0.0\nsamples = 7\nvalue = [0, 7]"] ;
813 -> 814 ;
815 [label="gini = 0.0\nsamples = 1\nvalue = [1, 0]"] ;
813 -> 815 ;
816 [label="X[10] <= 0.5\ngini = 0.469\nsamples = 8\nvalue = [5, 3]"] ;
812 -> 816 ;
817 [label="X[72] <= -0.5\ngini = 0.278\nsamples = 6\nvalue = [5, 1]"] ;
816 -> 817 ;
818 [label="gini = 0.0\nsamples = 1\nvalue = [0, 1]"] ;
817 -> 818 ;
819 [label="gini = 0.0\nsamples = 5\nvalue = [5, 0]"] ;
817 -> 819 ;
820 [label="gini = 0.0\nsamples = 2\nvalue = [0, 2]"] ;
816 -> 820 ;
821 [label="X[6] <= 0.5\ngini = 0.278\nsamples = 24\nvalue = [20, 4]"] ;
603 -> 821 ;
822 [label="X[113] <= 0.5\ngini = 0.172\nsamples = 21\nvalue = [19, 2]"] ;
821 -> 822 ;
823 [label="X[47] <= 0.5\ngini = 0.095\nsamples = 20\nvalue = [19, 1]"] ;
822 -> 823 ;
824 [label="gini = 0.0\nsamples = 19\nvalue = [19, 0]"] ;
823 -> 824 ;
825 [label="gini = 0.0\nsamples = 1\nvalue = [0, 1]"] ;
823 -> 825 ;
826 [label="gini = 0.0\nsamples = 1\nvalue = [0, 1]"] ;
822 -> 826 ;
827 [label="X[93] <= -0.5\ngini = 0.444\nsamples = 3\nvalue = [1, 2]"] ;
821 -> 827 ;
828 [label="gini = 0.0\nsamples = 1\nvalue = [1, 0]"] ;
827 -> 828 ;
829 [label="gini = 0.0\nsamples = 2\nvalue = [0, 2]"] ;
827 -> 829 ;
830 [label="X[0] <= 148.0\ngini = 0.444\nsamples = 15\nvalue = [5, 10]"] ;
568 -> 830 ;
831 [label="gini = 0.0\nsamples = 6\nvalue = [0, 6]"] ;
830 -> 831 ;
832 [label="X[37] <= 0.5\ngini = 0.494\nsamples = 9\nvalue = [5, 4]"] ;
830 -> 832 ;
833 [label="X[10] <= 0.5\ngini = 0.408\nsamples = 7\nvalue = [5, 2]"] ;
832 -> 833 ;
834 [label="X[69] <= 0.5\ngini = 0.278\nsamples = 6\nvalue = [5, 1]"] ;
833 -> 834 ;
835 [label="gini = 0.0\nsamples = 5\nvalue = [5, 0]"] ;
834 -> 835 ;
836 [label="gini = 0.0\nsamples = 1\nvalue = [0, 1]"] ;
834 -> 836 ;
837 [label="gini = 0.0\nsamples = 1\nvalue = [0, 1]"] ;
833 -> 837 ;
838 [label="gini = 0.0\nsamples = 2\nvalue = [0, 2]"] ;
832 -> 838 ;
839 [label="X[99] <= -0.5\ngini = 0.423\nsamples = 504\nvalue = [351, 153]"] ;
543 -> 839 ;
840 [label="X[48] <= 0.5\ngini = 0.463\nsamples = 11\nvalue = [4, 7]"] ;
839 -> 840 ;
841 [label="X[46] <= 0.5\ngini = 0.346\nsamples = 9\nvalue = [2, 7]"] ;
840 -> 841 ;
842 [label="gini = 0.0\nsamples = 6\nvalue = [0, 6]"] ;
841 -> 842 ;
843 [label="X[8] <= 0.5\ngini = 0.444\nsamples = 3\nvalue = [2, 1]"] ;
841 -> 843 ;
844 [label="gini = 0.0\nsamples = 2\nvalue = [2, 0]"] ;
843 -> 844 ;
845 [label="gini = 0.0\nsamples = 1\nvalue = [0, 1]"] ;
843 -> 845 ;
846 [label="gini = 0.0\nsamples = 2\nvalue = [2, 0]"] ;
840 -> 846 ;
847 [label="X[115] <= 0.5\ngini = 0.417\nsamples = 493\nvalue = [347, 146]"] ;
839 -> 847 ;
848 [label="X[44] <= 0.5\ngini = 0.413\nsamples = 488\nvalue = [346, 142]"] ;
847 -> 848 ;
849 [label="X[95] <= -0.5\ngini = 0.423\nsamples = 457\nvalue = [318, 139]"] ;
848 -> 849 ;
850 [label="X[6] <= -0.5\ngini = 0.278\nsamples = 60\nvalue = [50, 10]"] ;
849 -> 850 ;
851 [label="gini = 0.0\nsamples = 2\nvalue = [0, 2]"] ;
850 -> 851 ;
852 [label="X[7] <= 0.5\ngini = 0.238\nsamples = 58\nvalue = [50, 8]"] ;
850 -> 852 ;
853 [label="X[72] <= -0.5\ngini = 0.174\nsamples = 52\nvalue = [47, 5]"] ;
852 -> 853 ;
854 [label="gini = 0.0\nsamples = 1\nvalue = [0, 1]"] ;
853 -> 854 ;
855 [label="X[14] <= -0.5\ngini = 0.145\nsamples = 51\nvalue = [47, 4]"] ;
853 -> 855 ;
856 [label="gini = 0.0\nsamples = 1\nvalue = [0, 1]"] ;
855 -> 856 ;
857 [label="X[61] <= -0.5\ngini = 0.113\nsamples = 50\nvalue = [47, 3]"] ;
855 -> 857 ;
858 [label="X[10] <= 0.5\ngini = 0.5\nsamples = 2\nvalue = [1, 1]"] ;
857 -> 858 ;
859 [label="gini = 0.0\nsamples = 1\nvalue = [0, 1]"] ;
858 -> 859 ;
860 [label="gini = 0.0\nsamples = 1\nvalue = [1, 0]"] ;
858 -> 860 ;
861 [label="X[73] <= 0.5\ngini = 0.08\nsamples = 48\nvalue = [46, 2]"] ;
857 -> 861 ;
862 [label="X[70] <= 0.5\ngini = 0.043\nsamples = 46\nvalue = [45, 1]"] ;
861 -> 862 ;
863 [label="gini = 0.0\nsamples = 44\nvalue = [44, 0]"] ;
862 -> 863 ;
864 [label="X[0] <= 225.5\ngini = 0.5\nsamples = 2\nvalue = [1, 1]"] ;
862 -> 864 ;
865 [label="gini = 0.0\nsamples = 1\nvalue = [0, 1]"] ;
864 -> 865 ;
866 [label="gini = 0.0\nsamples = 1\nvalue = [1, 0]"] ;
864 -> 866 ;
867 [label="X[76] <= 0.5\ngini = 0.5\nsamples = 2\nvalue = [1, 1]"] ;
861 -> 867 ;
868 [label="gini = 0.0\nsamples = 1\nvalue = [1, 0]"] ;
867 -> 868 ;
869 [label="gini = 0.0\nsamples = 1\nvalue = [0, 1]"] ;
867 -> 869 ;
870 [label="X[2] <= 2.5\ngini = 0.5\nsamples = 6\nvalue = [3, 3]"] ;
852 -> 870 ;
871 [label="gini = 0.0\nsamples = 3\nvalue = [0, 3]"] ;
870 -> 871 ;
872 [label="gini = 0.0\nsamples = 3\nvalue = [3, 0]"] ;
870 -> 872 ;
873 [label="X[101] <= -0.5\ngini = 0.439\nsamples = 397\nvalue = [268, 129]"] ;
849 -> 873 ;
874 [label="X[72] <= 0.5\ngini = 0.48\nsamples = 20\nvalue = [8, 12]"] ;
873 -> 874 ;
875 [label="X[6] <= 0.5\ngini = 0.375\nsamples = 16\nvalue = [4, 12]"] ;
874 -> 875 ;
876 [label="X[41] <= 0.5\ngini = 0.26\nsamples = 13\nvalue = [2, 11]"] ;
875 -> 876 ;
877 [label="X[24] <= -0.5\ngini = 0.153\nsamples = 12\nvalue = [1, 11]"] ;
876 -> 877 ;
878 [label="gini = 0.0\nsamples = 1\nvalue = [1, 0]"] ;
877 -> 878 ;
879 [label="gini = 0.0\nsamples = 11\nvalue = [0, 11]"] ;
877 -> 879 ;
880 [label="gini = 0.0\nsamples = 1\nvalue = [1, 0]"] ;
876 -> 880 ;
881 [label="X[86] <= 0.5\ngini = 0.444\nsamples = 3\nvalue = [2, 1]"] ;
875 -> 881 ;
882 [label="gini = 0.0\nsamples = 2\nvalue = [2, 0]"] ;
881 -> 882 ;
883 [label="gini = 0.0\nsamples = 1\nvalue = [0, 1]"] ;
881 -> 883 ;
884 [label="gini = 0.0\nsamples = 4\nvalue = [4, 0]"] ;
874 -> 884 ;
885 [label="X[103] <= 0.5\ngini = 0.428\nsamples = 377\nvalue = [260, 117]"] ;
873 -> 885 ;
886 [label="X[61] <= 0.5\ngini = 0.436\nsamples = 365\nvalue = [248, 117]"] ;
885 -> 886 ;
887 [label="X[52] <= -0.5\ngini = 0.448\nsamples = 331\nvalue = [219, 112]"] ;
886 -> 887 ;
888 [label="X[8] <= -0.5\ngini = 0.278\nsamples = 6\nvalue = [1, 5]"] ;
887 -> 888 ;
889 [label="gini = 0.0\nsamples = 1\nvalue = [1, 0]"] ;
888 -> 889 ;
890 [label="gini = 0.0\nsamples = 5\nvalue = [0, 5]"] ;
888 -> 890 ;
891 [label="X[86] <= 0.5\ngini = 0.442\nsamples = 325\nvalue = [218, 107]"] ;
887 -> 891 ;
892 [label="X[43] <= -0.5\ngini = 0.452\nsamples = 301\nvalue = [197, 104]"] ;
891 -> 892 ;
893 [label="X[32] <= -0.5\ngini = 0.307\nsamples = 37\nvalue = [30, 7]"] ;
892 -> 893 ;
894 [label="gini = 0.0\nsamples = 2\nvalue = [0, 2]"] ;
893 -> 894 ;
895 [label="X[46] <= -0.5\ngini = 0.245\nsamples = 35\nvalue = [30, 5]"] ;
893 -> 895 ;
896 [label="X[21] <= 0.5\ngini = 0.5\nsamples = 6\nvalue = [3, 3]"] ;
895 -> 896 ;
897 [label="X[2] <= 2.5\ngini = 0.375\nsamples = 4\nvalue = [3, 1]"] ;
896 -> 897 ;
898 [label="gini = 0.0\nsamples = 1\nvalue = [0, 1]"] ;
897 -> 898 ;
899 [label="gini = 0.0\nsamples = 3\nvalue = [3, 0]"] ;
897 -> 899 ;
900 [label="gini = 0.0\nsamples = 2\nvalue = [0, 2]"] ;
896 -> 900 ;
901 [label="X[96] <= -0.5\ngini = 0.128\nsamples = 29\nvalue = [27, 2]"] ;
895 -> 901 ;
902 [label="X[100] <= 0.5\ngini = 0.444\nsamples = 3\nvalue = [1, 2]"] ;
901 -> 902 ;
903 [label="gini = 0.0\nsamples = 2\nvalue = [0, 2]"] ;
902 -> 903 ;
904 [label="gini = 0.0\nsamples = 1\nvalue = [1, 0]"] ;
902 -> 904 ;
905 [label="gini = 0.0\nsamples = 26\nvalue = [26, 0]"] ;
901 -> 905 ;
906 [label="X[78] <= 0.5\ngini = 0.465\nsamples = 264\nvalue = [167, 97]"] ;
892 -> 906 ;
907 [label="X[76] <= -0.5\ngini = 0.459\nsamples = 258\nvalue = [166, 92]"] ;
906 -> 907 ;
908 [label="X[10] <= 0.5\ngini = 0.486\nsamples = 24\nvalue = [10, 14]"] ;
907 -> 908 ;
909 [label="X[73] <= -0.5\ngini = 0.5\nsamples = 20\nvalue = [10, 10]"] ;
908 -> 909 ;
910 [label="gini = 0.0\nsamples = 3\nvalue = [0, 3]"] ;
909 -> 910 ;
911 [label="X[100] <= -0.5\ngini = 0.484\nsamples = 17\nvalue = [10, 7]"] ;
909 -> 911 ;
912 [label="gini = 0.0\nsamples = 2\nvalue = [0, 2]"] ;
911 -> 912 ;
913 [label="X[0] <= 214.0\ngini = 0.444\nsamples = 15\nvalue = [10, 5]"] ;
911 -> 913 ;
914 [label="X[104] <= 0.5\ngini = 0.355\nsamples = 13\nvalue = [10, 3]"] ;
913 -> 914 ;
915 [label="X[92] <= 0.5\ngini = 0.278\nsamples = 12\nvalue = [10, 2]"] ;
914 -> 915 ;
916 [label="X[15] <= 0.5\ngini = 0.165\nsamples = 11\nvalue = [10, 1]"] ;
915 -> 916 ;
917 [label="gini = 0.0\nsamples = 10\nvalue = [10, 0]"] ;
916 -> 917 ;
918 [label="gini = 0.0\nsamples = 1\nvalue = [0, 1]"] ;
916 -> 918 ;
919 [label="gini = 0.0\nsamples = 1\nvalue = [0, 1]"] ;
915 -> 919 ;
920 [label="gini = 0.0\nsamples = 1\nvalue = [0, 1]"] ;
914 -> 920 ;
921 [label="gini = 0.0\nsamples = 2\nvalue = [0, 2]"] ;
913 -> 921 ;
922 [label="gini = 0.0\nsamples = 4\nvalue = [0, 4]"] ;
908 -> 922 ;
923 [label="X[83] <= 0.5\ngini = 0.444\nsamples = 234\nvalue = [156, 78]"] ;
907 -> 923 ;
924 [label="X[4] <= 0.5\ngini = 0.437\nsamples = 229\nvalue = [155, 74]"] ;
923 -> 924 ;
925 [label="X[113] <= 0.5\ngini = 0.411\nsamples = 190\nvalue = [135, 55]"] ;
924 -> 925 ;
926 [label="X[64] <= 0.5\ngini = 0.405\nsamples = 188\nvalue = [135, 53]"] ;
925 -> 926 ;
927 [label="X[14] <= -0.5\ngini = 0.384\nsamples = 170\nvalue = [126, 44]"] ;
926 -> 927 ;
928 [label="X[1] <= 5.5\ngini = 0.48\nsamples = 10\nvalue = [4, 6]"] ;
927 -> 928 ;
929 [label="X[55] <= -0.5\ngini = 0.32\nsamples = 5\nvalue = [1, 4]"] ;
928 -> 929 ;
930 [label="gini = 0.0\nsamples = 1\nvalue = [1, 0]"] ;
929 -> 930 ;
931 [label="gini = 0.0\nsamples = 4\nvalue = [0, 4]"] ;
929 -> 931 ;
932 [label="X[0] <= 177.0\ngini = 0.48\nsamples = 5\nvalue = [3, 2]"] ;
928 -> 932 ;
933 [label="X[39] <= -0.5\ngini = 0.444\nsamples = 3\nvalue = [1, 2]"] ;
932 -> 933 ;
934 [label="gini = 0.0\nsamples = 1\nvalue = [1, 0]"] ;
933 -> 934 ;
935 [label="gini = 0.0\nsamples = 2\nvalue = [0, 2]"] ;
933 -> 935 ;
936 [label="gini = 0.0\nsamples = 2\nvalue = [2, 0]"] ;
932 -> 936 ;
937 [label="X[109] <= 0.5\ngini = 0.362\nsamples = 160\nvalue = [122, 38]"] ;
927 -> 937 ;
938 [label="X[112] <= -0.5\ngini = 0.352\nsamples = 158\nvalue = [122, 36]"] ;
937 -> 938 ;
939 [label="X[0] <= 204.5\ngini = 0.375\nsamples = 4\nvalue = [1, 3]"] ;
938 -> 939 ;
940 [label="gini = 0.0\nsamples = 3\nvalue = [0, 3]"] ;
939 -> 940 ;
941 [label="gini = 0.0\nsamples = 1\nvalue = [1, 0]"] ;
939 -> 941 ;
942 [label="X[107] <= 0.5\ngini = 0.337\nsamples = 154\nvalue = [121, 33]"] ;
938 -> 942 ;
943 [label="X[9] <= -0.5\ngini = 0.322\nsamples = 149\nvalue = [119, 30]"] ;
942 -> 943 ;
944 [label="X[37] <= -0.5\ngini = 0.5\nsamples = 8\nvalue = [4, 4]"] ;
943 -> 944 ;
945 [label="gini = 0.0\nsamples = 3\nvalue = [0, 3]"] ;
944 -> 945 ;
946 [label="X[10] <= 0.5\ngini = 0.32\nsamples = 5\nvalue = [4, 1]"] ;
944 -> 946 ;
947 [label="gini = 0.0\nsamples = 4\nvalue = [4, 0]"] ;
946 -> 947 ;
948 [label="gini = 0.0\nsamples = 1\nvalue = [0, 1]"] ;
946 -> 948 ;
949 [label="X[57] <= 0.5\ngini = 0.301\nsamples = 141\nvalue = [115, 26]"] ;
943 -> 949 ;
950 [label="X[104] <= -0.5\ngini = 0.287\nsamples = 138\nvalue = [114, 24]"] ;
949 -> 950 ;
951 [label="X[37] <= -0.5\ngini = 0.444\nsamples = 3\nvalue = [1, 2]"] ;
950 -> 951 ;
952 [label="gini = 0.0\nsamples = 1\nvalue = [1, 0]"] ;
951 -> 952 ;
953 [label="gini = 0.0\nsamples = 2\nvalue = [0, 2]"] ;
951 -> 953 ;
954 [label="X[53] <= 0.5\ngini = 0.273\nsamples = 135\nvalue = [113, 22]"] ;
950 -> 954 ;
955 [label="X[0] <= 246.5\ngini = 0.251\nsamples = 129\nvalue = [110, 19]"] ;
954 -> 955 ;
956 [label="X[49] <= -0.5\ngini = 0.242\nsamples = 128\nvalue = [110, 18]"] ;
955 -> 956 ;
957 [label="X[46] <= -0.5\ngini = 0.5\nsamples = 4\nvalue = [2, 2]"] ;
956 -> 957 ;
958 [label="gini = 0.0\nsamples = 2\nvalue = [2, 0]"] ;
957 -> 958 ;
959 [label="gini = 0.0\nsamples = 2\nvalue = [0, 2]"] ;
957 -> 959 ;
960 [label="X[97] <= 0.5\ngini = 0.225\nsamples = 124\nvalue = [108, 16]"] ;
956 -> 960 ;
961 [label="X[99] <= 0.5\ngini = 0.198\nsamples = 117\nvalue = [104, 13]"] ;
960 -> 961 ;
962 [label="X[34] <= -0.5\ngini = 0.165\nsamples = 110\nvalue = [100, 10]"] ;
961 -> 962 ;
963 [label="X[106] <= 0.5\ngini = 0.463\nsamples = 11\nvalue = [7, 4]"] ;
962 -> 963 ;
964 [label="X[72] <= -0.5\ngini = 0.346\nsamples = 9\nvalue = [7, 2]"] ;
963 -> 964 ;
965 [label="gini = 0.0\nsamples = 2\nvalue = [0, 2]"] ;
964 -> 965 ;
966 [label="gini = 0.0\nsamples = 7\nvalue = [7, 0]"] ;
964 -> 966 ;
967 [label="gini = 0.0\nsamples = 2\nvalue = [0, 2]"] ;
963 -> 967 ;
968 [label="X[111] <= 0.5\ngini = 0.114\nsamples = 99\nvalue = [93, 6]"] ;
962 -> 968 ;
969 [label="X[111] <= -0.5\ngini = 0.082\nsamples = 93\nvalue = [89, 4]"] ;
968 -> 969 ;
970 [label="X[28] <= 0.5\ngini = 0.5\nsamples = 2\nvalue = [1, 1]"] ;
969 -> 970 ;
971 [label="gini = 0.0\nsamples = 1\nvalue = [0, 1]"] ;
970 -> 971 ;
972 [label="gini = 0.0\nsamples = 1\nvalue = [1, 0]"] ;
970 -> 972 ;
973 [label="X[24] <= 0.5\ngini = 0.064\nsamples = 91\nvalue = [88, 3]"] ;
969 -> 973 ;
974 [label="X[87] <= 0.5\ngini = 0.024\nsamples = 81\nvalue = [80, 1]"] ;
973 -> 974 ;
975 [label="gini = 0.0\nsamples = 76\nvalue = [76, 0]"] ;
974 -> 975 ;
976 [label="X[4] <= -0.5\ngini = 0.32\nsamples = 5\nvalue = [4, 1]"] ;
974 -> 976 ;
977 [label="gini = 0.0\nsamples = 1\nvalue = [0, 1]"] ;
976 -> 977 ;
978 [label="gini = 0.0\nsamples = 4\nvalue = [4, 0]"] ;
976 -> 978 ;
979 [label="X[19] <= -0.5\ngini = 0.32\nsamples = 10\nvalue = [8, 2]"] ;
973 -> 979 ;
980 [label="gini = 0.0\nsamples = 1\nvalue = [0, 1]"] ;
979 -> 980 ;
981 [label="X[37] <= 0.5\ngini = 0.198\nsamples = 9\nvalue = [8, 1]"] ;
979 -> 981 ;
982 [label="gini = 0.0\nsamples = 8\nvalue = [8, 0]"] ;
981 -> 982 ;
983 [label="gini = 0.0\nsamples = 1\nvalue = [0, 1]"] ;
981 -> 983 ;
984 [label="X[36] <= 0.5\ngini = 0.444\nsamples = 6\nvalue = [4, 2]"] ;
968 -> 984 ;
985 [label="X[87] <= -0.5\ngini = 0.32\nsamples = 5\nvalue = [4, 1]"] ;
984 -> 985 ;
986 [label="gini = 0.0\nsamples = 1\nvalue = [0, 1]"] ;
985 -> 986 ;
987 [label="gini = 0.0\nsamples = 4\nvalue = [4, 0]"] ;
985 -> 987 ;
988 [label="gini = 0.0\nsamples = 1\nvalue = [0, 1]"] ;
984 -> 988 ;
989 [label="X[8] <= 0.5\ngini = 0.49\nsamples = 7\nvalue = [4, 3]"] ;
961 -> 989 ;
990 [label="X[0] <= 163.5\ngini = 0.32\nsamples = 5\nvalue = [4, 1]"] ;
989 -> 990 ;
991 [label="gini = 0.0\nsamples = 1\nvalue = [0, 1]"] ;
990 -> 991 ;
992 [label="gini = 0.0\nsamples = 4\nvalue = [4, 0]"] ;
990 -> 992 ;
993 [label="gini = 0.0\nsamples = 2\nvalue = [0, 2]"] ;
989 -> 993 ;
994 [label="X[1] <= 5.5\ngini = 0.49\nsamples = 7\nvalue = [4, 3]"] ;
960 -> 994 ;
995 [label="X[74] <= 0.5\ngini = 0.32\nsamples = 5\nvalue = [4, 1]"] ;
994 -> 995 ;
996 [label="gini = 0.0\nsamples = 4\nvalue = [4, 0]"] ;
995 -> 996 ;
997 [label="gini = 0.0\nsamples = 1\nvalue = [0, 1]"] ;
995 -> 997 ;
998 [label="gini = 0.0\nsamples = 2\nvalue = [0, 2]"] ;
994 -> 998 ;
999 [label="gini = 0.0\nsamples = 1\nvalue = [0, 1]"] ;
955 -> 999 ;
1000 [label="X[16] <= 0.5\ngini = 0.5\nsamples = 6\nvalue = [3, 3]"] ;
954 -> 1000 ;
1001 [label="X[6] <= 0.5\ngini = 0.375\nsamples = 4\nvalue = [3, 1]"] ;
1000 -> 1001 ;
1002 [label="gini = 0.0\nsamples = 3\nvalue = [3, 0]"] ;
1001 -> 1002 ;
1003 [label="gini = 0.0\nsamples = 1\nvalue = [0, 1]"] ;
1001 -> 1003 ;
1004 [label="gini = 0.0\nsamples = 2\nvalue = [0, 2]"] ;
1000 -> 1004 ;
1005 [label="X[100] <= -0.5\ngini = 0.444\nsamples = 3\nvalue = [1, 2]"] ;
949 -> 1005 ;
1006 [label="gini = 0.0\nsamples = 1\nvalue = [1, 0]"] ;
1005 -> 1006 ;
1007 [label="gini = 0.0\nsamples = 2\nvalue = [0, 2]"] ;
1005 -> 1007 ;
1008 [label="X[0] <= 178.5\ngini = 0.48\nsamples = 5\nvalue = [2, 3]"] ;
942 -> 1008 ;
1009 [label="gini = 0.0\nsamples = 2\nvalue = [0, 2]"] ;
1008 -> 1009 ;
1010 [label="X[90] <= -0.5\ngini = 0.444\nsamples = 3\nvalue = [2, 1]"] ;
1008 -> 1010 ;
1011 [label="gini = 0.0\nsamples = 1\nvalue = [0, 1]"] ;
1010 -> 1011 ;
1012 [label="gini = 0.0\nsamples = 2\nvalue = [2, 0]"] ;
1010 -> 1012 ;
1013 [label="gini = 0.0\nsamples = 2\nvalue = [0, 2]"] ;
937 -> 1013 ;
1014 [label="X[3] <= 0.5\ngini = 0.5\nsamples = 18\nvalue = [9, 9]"] ;
926 -> 1014 ;
1015 [label="X[42] <= 0.5\ngini = 0.48\nsamples = 15\nvalue = [9, 6]"] ;
1014 -> 1015 ;
1016 [label="X[24] <= 0.5\ngini = 0.426\nsamples = 13\nvalue = [9, 4]"] ;
1015 -> 1016 ;
1017 [label="X[72] <= 0.5\ngini = 0.298\nsamples = 11\nvalue = [9, 2]"] ;
1016 -> 1017 ;
1018 [label="X[103] <= -0.5\ngini = 0.18\nsamples = 10\nvalue = [9, 1]"] ;
1017 -> 1018 ;
1019 [label="gini = 0.0\nsamples = 1\nvalue = [0, 1]"] ;
1018 -> 1019 ;
1020 [label="gini = 0.0\nsamples = 9\nvalue = [9, 0]"] ;
1018 -> 1020 ;
1021 [label="gini = 0.0\nsamples = 1\nvalue = [0, 1]"] ;
1017 -> 1021 ;
1022 [label="gini = 0.0\nsamples = 2\nvalue = [0, 2]"] ;
1016 -> 1022 ;
1023 [label="gini = 0.0\nsamples = 2\nvalue = [0, 2]"] ;
1015 -> 1023 ;
1024 [label="gini = 0.0\nsamples = 3\nvalue = [0, 3]"] ;
1014 -> 1024 ;
1025 [label="gini = 0.0\nsamples = 2\nvalue = [0, 2]"] ;
925 -> 1025 ;
1026 [label="X[86] <= -0.5\ngini = 0.5\nsamples = 39\nvalue = [20, 19]"] ;
924 -> 1026 ;
1027 [label="gini = 0.0\nsamples = 4\nvalue = [4, 0]"] ;
1026 -> 1027 ;
1028 [label="X[18] <= -0.5\ngini = 0.496\nsamples = 35\nvalue = [16, 19]"] ;
1026 -> 1028 ;
1029 [label="gini = 0.0\nsamples = 3\nvalue = [3, 0]"] ;
1028 -> 1029 ;
1030 [label="X[38] <= -0.5\ngini = 0.482\nsamples = 32\nvalue = [13, 19]"] ;
1028 -> 1030 ;
1031 [label="gini = 0.0\nsamples = 3\nvalue = [3, 0]"] ;
1030 -> 1031 ;
1032 [label="X[106] <= 0.5\ngini = 0.452\nsamples = 29\nvalue = [10, 19]"] ;
1030 -> 1032 ;
1033 [label="X[73] <= 0.5\ngini = 0.417\nsamples = 27\nvalue = [8, 19]"] ;
1032 -> 1033 ;
1034 [label="X[44] <= -0.5\ngini = 0.365\nsamples = 25\nvalue = [6, 19]"] ;
1033 -> 1034 ;
1035 [label="X[114] <= -0.5\ngini = 0.444\nsamples = 3\nvalue = [2, 1]"] ;
1034 -> 1035 ;
1036 [label="gini = 0.0\nsamples = 1\nvalue = [0, 1]"] ;
1035 -> 1036 ;
1037 [label="gini = 0.0\nsamples = 2\nvalue = [2, 0]"] ;
1035 -> 1037 ;
1038 [label="X[30] <= -0.5\ngini = 0.298\nsamples = 22\nvalue = [4, 18]"] ;
1034 -> 1038 ;
1039 [label="X[0] <= 155.5\ngini = 0.444\nsamples = 3\nvalue = [2, 1]"] ;
1038 -> 1039 ;
1040 [label="gini = 0.0\nsamples = 1\nvalue = [0, 1]"] ;
1039 -> 1040 ;
1041 [label="gini = 0.0\nsamples = 2\nvalue = [2, 0]"] ;
1039 -> 1041 ;
1042 [label="X[25] <= 0.5\ngini = 0.188\nsamples = 19\nvalue = [2, 17]"] ;
1038 -> 1042 ;
1043 [label="X[19] <= 0.5\ngini = 0.105\nsamples = 18\nvalue = [1, 17]"] ;
1042 -> 1043 ;
1044 [label="gini = 0.0\nsamples = 17\nvalue = [0, 17]"] ;
1043 -> 1044 ;
1045 [label="gini = 0.0\nsamples = 1\nvalue = [1, 0]"] ;
1043 -> 1045 ;
1046 [label="gini = 0.0\nsamples = 1\nvalue = [1, 0]"] ;
1042 -> 1046 ;
1047 [label="gini = 0.0\nsamples = 2\nvalue = [2, 0]"] ;
1033 -> 1047 ;
1048 [label="gini = 0.0\nsamples = 2\nvalue = [2, 0]"] ;
1032 -> 1048 ;
1049 [label="X[82] <= 0.5\ngini = 0.32\nsamples = 5\nvalue = [1, 4]"] ;
923 -> 1049 ;
1050 [label="gini = 0.0\nsamples = 4\nvalue = [0, 4]"] ;
1049 -> 1050 ;
1051 [label="gini = 0.0\nsamples = 1\nvalue = [1, 0]"] ;
1049 -> 1051 ;
1052 [label="X[8] <= -0.5\ngini = 0.278\nsamples = 6\nvalue = [1, 5]"] ;
906 -> 1052 ;
1053 [label="gini = 0.0\nsamples = 1\nvalue = [1, 0]"] ;
1052 -> 1053 ;
1054 [label="gini = 0.0\nsamples = 5\nvalue = [0, 5]"] ;
1052 -> 1054 ;
1055 [label="X[9] <= 0.5\ngini = 0.219\nsamples = 24\nvalue = [21, 3]"] ;
891 -> 1055 ;
1056 [label="X[29] <= -0.5\ngini = 0.159\nsamples = 23\nvalue = [21, 2]"] ;
1055 -> 1056 ;
1057 [label="gini = 0.0\nsamples = 1\nvalue = [0, 1]"] ;
1056 -> 1057 ;
1058 [label="X[91] <= -0.5\ngini = 0.087\nsamples = 22\nvalue = [21, 1]"] ;
1056 -> 1058 ;
1059 [label="gini = 0.0\nsamples = 1\nvalue = [0, 1]"] ;
1058 -> 1059 ;
1060 [label="gini = 0.0\nsamples = 21\nvalue = [21, 0]"] ;
1058 -> 1060 ;
1061 [label="gini = 0.0\nsamples = 1\nvalue = [0, 1]"] ;
1055 -> 1061 ;
1062 [label="X[64] <= -0.5\ngini = 0.251\nsamples = 34\nvalue = [29, 5]"] ;
886 -> 1062 ;
1063 [label="gini = 0.0\nsamples = 2\nvalue = [0, 2]"] ;
1062 -> 1063 ;
1064 [label="X[103] <= -0.5\ngini = 0.17\nsamples = 32\nvalue = [29, 3]"] ;
1062 -> 1064 ;
1065 [label="gini = 0.0\nsamples = 1\nvalue = [0, 1]"] ;
1064 -> 1065 ;
1066 [label="X[25] <= 0.5\ngini = 0.121\nsamples = 31\nvalue = [29, 2]"] ;
1064 -> 1066 ;
1067 [label="X[7] <= 0.5\ngini = 0.064\nsamples = 30\nvalue = [29, 1]"] ;
1066 -> 1067 ;
1068 [label="gini = 0.0\nsamples = 28\nvalue = [28, 0]"] ;
1067 -> 1068 ;
1069 [label="X[8] <= 0.5\ngini = 0.5\nsamples = 2\nvalue = [1, 1]"] ;
1067 -> 1069 ;
1070 [label="gini = 0.0\nsamples = 1\nvalue = [1, 0]"] ;
1069 -> 1070 ;
1071 [label="gini = 0.0\nsamples = 1\nvalue = [0, 1]"] ;
1069 -> 1071 ;
1072 [label="gini = 0.0\nsamples = 1\nvalue = [0, 1]"] ;
1066 -> 1072 ;
1073 [label="gini = 0.0\nsamples = 12\nvalue = [12, 0]"] ;
885 -> 1073 ;
1074 [label="X[22] <= 0.5\ngini = 0.175\nsamples = 31\nvalue = [28, 3]"] ;
848 -> 1074 ;
1075 [label="X[92] <= -0.5\ngini = 0.124\nsamples = 30\nvalue = [28, 2]"] ;
1074 -> 1075 ;
1076 [label="gini = 0.0\nsamples = 1\nvalue = [0, 1]"] ;
1075 -> 1076 ;
1077 [label="X[35] <= 0.5\ngini = 0.067\nsamples = 29\nvalue = [28, 1]"] ;
1075 -> 1077 ;
1078 [label="gini = 0.0\nsamples = 28\nvalue = [28, 0]"] ;
1077 -> 1078 ;
1079 [label="gini = 0.0\nsamples = 1\nvalue = [0, 1]"] ;
1077 -> 1079 ;
1080 [label="gini = 0.0\nsamples = 1\nvalue = [0, 1]"] ;
1074 -> 1080 ;
1081 [label="X[76] <= -0.5\ngini = 0.32\nsamples = 5\nvalue = [1, 4]"] ;
847 -> 1081 ;
1082 [label="gini = 0.0\nsamples = 1\nvalue = [1, 0]"] ;
1081 -> 1082 ;
1083 [label="gini = 0.0\nsamples = 4\nvalue = [0, 4]"] ;
1081 -> 1083 ;
1084 [label="X[12] <= -0.5\ngini = 0.367\nsamples = 128\nvalue = [97, 31]"] ;
542 -> 1084 ;
1085 [label="X[2] <= 2.5\ngini = 0.375\nsamples = 8\nvalue = [2, 6]"] ;
1084 -> 1085 ;
1086 [label="gini = 0.0\nsamples = 5\nvalue = [0, 5]"] ;
1085 -> 1086 ;
1087 [label="X[0] <= 149.0\ngini = 0.444\nsamples = 3\nvalue = [2, 1]"] ;
1085 -> 1087 ;
1088 [label="gini = 0.0\nsamples = 2\nvalue = [2, 0]"] ;
1087 -> 1088 ;
1089 [label="gini = 0.0\nsamples = 1\nvalue = [0, 1]"] ;
1087 -> 1089 ;
1090 [label="X[35] <= 0.5\ngini = 0.33\nsamples = 120\nvalue = [95, 25]"] ;
1084 -> 1090 ;
1091 [label="X[95] <= -0.5\ngini = 0.299\nsamples = 115\nvalue = [94, 21]"] ;
1090 -> 1091 ;
1092 [label="X[8] <= 0.5\ngini = 0.494\nsamples = 18\nvalue = [10, 8]"] ;
1091 -> 1092 ;
1093 [label="X[9] <= 0.5\ngini = 0.444\nsamples = 15\nvalue = [10, 5]"] ;
1092 -> 1093 ;
1094 [label="X[0] <= 153.5\ngini = 0.355\nsamples = 13\nvalue = [10, 3]"] ;
1093 -> 1094 ;
1095 [label="X[34] <= -0.5\ngini = 0.5\nsamples = 6\nvalue = [3, 3]"] ;
1094 -> 1095 ;
1096 [label="gini = 0.0\nsamples = 2\nvalue = [0, 2]"] ;
1095 -> 1096 ;
1097 [label="X[33] <= 0.5\ngini = 0.375\nsamples = 4\nvalue = [3, 1]"] ;
1095 -> 1097 ;
1098 [label="gini = 0.0\nsamples = 3\nvalue = [3, 0]"] ;
1097 -> 1098 ;
1099 [label="gini = 0.0\nsamples = 1\nvalue = [0, 1]"] ;
1097 -> 1099 ;
1100 [label="gini = 0.0\nsamples = 7\nvalue = [7, 0]"] ;
1094 -> 1100 ;
1101 [label="gini = 0.0\nsamples = 2\nvalue = [0, 2]"] ;
1093 -> 1101 ;
1102 [label="gini = 0.0\nsamples = 3\nvalue = [0, 3]"] ;
1092 -> 1102 ;
1103 [label="X[57] <= -0.5\ngini = 0.232\nsamples = 97\nvalue = [84, 13]"] ;
1091 -> 1103 ;
1104 [label="gini = 0.0\nsamples = 2\nvalue = [0, 2]"] ;
1103 -> 1104 ;
1105 [label="X[100] <= 0.5\ngini = 0.205\nsamples = 95\nvalue = [84, 11]"] ;
1103 -> 1105 ;
1106 [label="X[78] <= 0.5\ngini = 0.162\nsamples = 90\nvalue = [82, 8]"] ;
1105 -> 1106 ;
1107 [label="X[61] <= 0.5\ngini = 0.128\nsamples = 87\nvalue = [81, 6]"] ;
1106 -> 1107 ;
1108 [label="X[15] <= 0.5\ngini = 0.072\nsamples = 80\nvalue = [77, 3]"] ;
1107 -> 1108 ;
1109 [label="X[98] <= 0.5\ngini = 0.049\nsamples = 79\nvalue = [77, 2]"] ;
1108 -> 1109 ;
1110 [label="X[40] <= 0.5\ngini = 0.025\nsamples = 78\nvalue = [77, 1]"] ;
1109 -> 1110 ;
1111 [label="gini = 0.0\nsamples = 75\nvalue = [75, 0]"] ;
1110 -> 1111 ;
1112 [label="X[46] <= 0.5\ngini = 0.444\nsamples = 3\nvalue = [2, 1]"] ;
1110 -> 1112 ;
1113 [label="gini = 0.0\nsamples = 2\nvalue = [2, 0]"] ;
1112 -> 1113 ;
1114 [label="gini = 0.0\nsamples = 1\nvalue = [0, 1]"] ;
1112 -> 1114 ;
1115 [label="gini = 0.0\nsamples = 1\nvalue = [0, 1]"] ;
1109 -> 1115 ;
1116 [label="gini = 0.0\nsamples = 1\nvalue = [0, 1]"] ;
1108 -> 1116 ;
1117 [label="X[46] <= -0.5\ngini = 0.49\nsamples = 7\nvalue = [4, 3]"] ;
1107 -> 1117 ;
1118 [label="gini = 0.0\nsamples = 2\nvalue = [0, 2]"] ;
1117 -> 1118 ;
1119 [label="X[34] <= -0.5\ngini = 0.32\nsamples = 5\nvalue = [4, 1]"] ;
1117 -> 1119 ;
1120 [label="gini = 0.0\nsamples = 1\nvalue = [0, 1]"] ;
1119 -> 1120 ;
1121 [label="gini = 0.0\nsamples = 4\nvalue = [4, 0]"] ;
1119 -> 1121 ;
1122 [label="X[6] <= 0.5\ngini = 0.444\nsamples = 3\nvalue = [1, 2]"] ;
1106 -> 1122 ;
1123 [label="gini = 0.0\nsamples = 2\nvalue = [0, 2]"] ;
1122 -> 1123 ;
1124 [label="gini = 0.0\nsamples = 1\nvalue = [1, 0]"] ;
1122 -> 1124 ;
1125 [label="X[0] <= 154.5\ngini = 0.48\nsamples = 5\nvalue = [2, 3]"] ;
1105 -> 1125 ;
1126 [label="gini = 0.0\nsamples = 2\nvalue = [0, 2]"] ;
1125 -> 1126 ;
1127 [label="X[76] <= -0.5\ngini = 0.444\nsamples = 3\nvalue = [2, 1]"] ;
1125 -> 1127 ;
1128 [label="gini = 0.0\nsamples = 1\nvalue = [0, 1]"] ;
1127 -> 1128 ;
1129 [label="gini = 0.0\nsamples = 2\nvalue = [2, 0]"] ;
1127 -> 1129 ;
1130 [label="X[31] <= 0.5\ngini = 0.32\nsamples = 5\nvalue = [1, 4]"] ;
1090 -> 1130 ;
1131 [label="gini = 0.0\nsamples = 4\nvalue = [0, 4]"] ;
1130 -> 1131 ;
1132 [label="gini = 0.0\nsamples = 1\nvalue = [1, 0]"] ;
1130 -> 1132 ;
1133 [label="X[0] <= 226.0\ngini = 0.499\nsamples = 75\nvalue = [39, 36]"] ;
527 -> 1133 ;
1134 [label="X[8] <= 0.5\ngini = 0.483\nsamples = 59\nvalue = [35, 24]"] ;
1133 -> 1134 ;
1135 [label="X[95] <= -0.5\ngini = 0.457\nsamples = 51\nvalue = [33, 18]"] ;
1134 -> 1135 ;
1136 [label="X[0] <= 154.0\ngini = 0.469\nsamples = 8\nvalue = [3, 5]"] ;
1135 -> 1136 ;
1137 [label="gini = 0.0\nsamples = 2\nvalue = [2, 0]"] ;
1136 -> 1137 ;
1138 [label="X[100] <= 0.5\ngini = 0.278\nsamples = 6\nvalue = [1, 5]"] ;
1136 -> 1138 ;
1139 [label="gini = 0.0\nsamples = 5\nvalue = [0, 5]"] ;
1138 -> 1139 ;
1140 [label="gini = 0.0\nsamples = 1\nvalue = [1, 0]"] ;
1138 -> 1140 ;
1141 [label="X[23] <= 0.5\ngini = 0.422\nsamples = 43\nvalue = [30, 13]"] ;
1135 -> 1141 ;
1142 [label="X[10] <= 0.5\ngini = 0.381\nsamples = 39\nvalue = [29, 10]"] ;
1141 -> 1142 ;
1143 [label="X[95] <= 0.5\ngini = 0.285\nsamples = 29\nvalue = [24, 5]"] ;
1142 -> 1143 ;
1144 [label="X[1] <= 8.5\ngini = 0.153\nsamples = 24\nvalue = [22, 2]"] ;
1143 -> 1144 ;
1145 [label="X[40] <= 0.5\ngini = 0.083\nsamples = 23\nvalue = [22, 1]"] ;
1144 -> 1145 ;
1146 [label="gini = 0.0\nsamples = 22\nvalue = [22, 0]"] ;
1145 -> 1146 ;
1147 [label="gini = 0.0\nsamples = 1\nvalue = [0, 1]"] ;
1145 -> 1147 ;
1148 [label="gini = 0.0\nsamples = 1\nvalue = [0, 1]"] ;
1144 -> 1148 ;
1149 [label="X[16] <= -0.5\ngini = 0.48\nsamples = 5\nvalue = [2, 3]"] ;
1143 -> 1149 ;
1150 [label="gini = 0.0\nsamples = 2\nvalue = [2, 0]"] ;
1149 -> 1150 ;
1151 [label="gini = 0.0\nsamples = 3\nvalue = [0, 3]"] ;
1149 -> 1151 ;
1152 [label="X[20] <= -0.5\ngini = 0.5\nsamples = 10\nvalue = [5, 5]"] ;
1142 -> 1152 ;
1153 [label="gini = 0.0\nsamples = 2\nvalue = [0, 2]"] ;
1152 -> 1153 ;
1154 [label="X[43] <= -0.5\ngini = 0.469\nsamples = 8\nvalue = [5, 3]"] ;
1152 -> 1154 ;
1155 [label="gini = 0.0\nsamples = 2\nvalue = [0, 2]"] ;
1154 -> 1155 ;
1156 [label="X[65] <= -0.5\ngini = 0.278\nsamples = 6\nvalue = [5, 1]"] ;
1154 -> 1156 ;
1157 [label="gini = 0.0\nsamples = 1\nvalue = [0, 1]"] ;
1156 -> 1157 ;
1158 [label="gini = 0.0\nsamples = 5\nvalue = [5, 0]"] ;
1156 -> 1158 ;
1159 [label="X[89] <= 0.5\ngini = 0.375\nsamples = 4\nvalue = [1, 3]"] ;
1141 -> 1159 ;
1160 [label="gini = 0.0\nsamples = 3\nvalue = [0, 3]"] ;
1159 -> 1160 ;
1161 [label="gini = 0.0\nsamples = 1\nvalue = [1, 0]"] ;
1159 -> 1161 ;
1162 [label="X[102] <= 0.5\ngini = 0.375\nsamples = 8\nvalue = [2, 6]"] ;
1134 -> 1162 ;
1163 [label="X[73] <= -0.5\ngini = 0.245\nsamples = 7\nvalue = [1, 6]"] ;
1162 -> 1163 ;
1164 [label="gini = 0.0\nsamples = 1\nvalue = [1, 0]"] ;
1163 -> 1164 ;
1165 [label="gini = 0.0\nsamples = 6\nvalue = [0, 6]"] ;
1163 -> 1165 ;
1166 [label="gini = 0.0\nsamples = 1\nvalue = [1, 0]"] ;
1162 -> 1166 ;
1167 [label="X[41] <= 0.5\ngini = 0.375\nsamples = 16\nvalue = [4, 12]"] ;
1133 -> 1167 ;
1168 [label="X[64] <= 0.5\ngini = 0.245\nsamples = 14\nvalue = [2, 12]"] ;
1167 -> 1168 ;
1169 [label="gini = 0.0\nsamples = 12\nvalue = [0, 12]"] ;
1168 -> 1169 ;
1170 [label="gini = 0.0\nsamples = 2\nvalue = [2, 0]"] ;
1168 -> 1170 ;
1171 [label="gini = 0.0\nsamples = 2\nvalue = [2, 0]"] ;
1167 -> 1171 ;
1172 [label="X[69] <= 0.5\ngini = 0.498\nsamples = 89\nvalue = [47, 42]"] ;
526 -> 1172 ;
1173 [label="X[2] <= 2.5\ngini = 0.5\nsamples = 82\nvalue = [40, 42]"] ;
1172 -> 1173 ;
1174 [label="X[96] <= -0.5\ngini = 0.466\nsamples = 46\nvalue = [17, 29]"] ;
1173 -> 1174 ;
1175 [label="gini = 0.0\nsamples = 4\nvalue = [4, 0]"] ;
1174 -> 1175 ;
1176 [label="X[61] <= -0.5\ngini = 0.427\nsamples = 42\nvalue = [13, 29]"] ;
1174 -> 1176 ;
1177 [label="X[19] <= 0.5\ngini = 0.32\nsamples = 5\nvalue = [4, 1]"] ;
1176 -> 1177 ;
1178 [label="gini = 0.0\nsamples = 4\nvalue = [4, 0]"] ;
1177 -> 1178 ;
1179 [label="gini = 0.0\nsamples = 1\nvalue = [0, 1]"] ;
1177 -> 1179 ;
1180 [label="X[78] <= 0.5\ngini = 0.368\nsamples = 37\nvalue = [9, 28]"] ;
1176 -> 1180 ;
1181 [label="X[15] <= 0.5\ngini = 0.32\nsamples = 35\nvalue = [7, 28]"] ;
1180 -> 1181 ;
1182 [label="X[81] <= 0.5\ngini = 0.257\nsamples = 33\nvalue = [5, 28]"] ;
1181 -> 1182 ;
1183 [label="X[92] <= -0.5\ngini = 0.219\nsamples = 32\nvalue = [4, 28]"] ;
1182 -> 1183 ;
1184 [label="gini = 0.0\nsamples = 1\nvalue = [1, 0]"] ;
1183 -> 1184 ;
1185 [label="X[67] <= 0.5\ngini = 0.175\nsamples = 31\nvalue = [3, 28]"] ;
1183 -> 1185 ;
1186 [label="X[63] <= 0.5\ngini = 0.124\nsamples = 30\nvalue = [2, 28]"] ;
1185 -> 1186 ;
1187 [label="X[64] <= 0.5\ngini = 0.067\nsamples = 29\nvalue = [1, 28]"] ;
1186 -> 1187 ;
1188 [label="gini = 0.0\nsamples = 27\nvalue = [0, 27]"] ;
1187 -> 1188 ;
1189 [label="X[8] <= 0.5\ngini = 0.5\nsamples = 2\nvalue = [1, 1]"] ;
1187 -> 1189 ;
1190 [label="gini = 0.0\nsamples = 1\nvalue = [0, 1]"] ;
1189 -> 1190 ;
1191 [label="gini = 0.0\nsamples = 1\nvalue = [1, 0]"] ;
1189 -> 1191 ;
1192 [label="gini = 0.0\nsamples = 1\nvalue = [1, 0]"] ;
1186 -> 1192 ;
1193 [label="gini = 0.0\nsamples = 1\nvalue = [1, 0]"] ;
1185 -> 1193 ;
1194 [label="gini = 0.0\nsamples = 1\nvalue = [1, 0]"] ;
1182 -> 1194 ;
1195 [label="gini = 0.0\nsamples = 2\nvalue = [2, 0]"] ;
1181 -> 1195 ;
1196 [label="gini = 0.0\nsamples = 2\nvalue = [2, 0]"] ;
1180 -> 1196 ;
1197 [label="X[9] <= -0.5\ngini = 0.461\nsamples = 36\nvalue = [23, 13]"] ;
1173 -> 1197 ;
1198 [label="gini = 0.0\nsamples = 2\nvalue = [0, 2]"] ;
1197 -> 1198 ;
1199 [label="X[37] <= -0.5\ngini = 0.438\nsamples = 34\nvalue = [23, 11]"] ;
1197 -> 1199 ;
1200 [label="gini = 0.0\nsamples = 2\nvalue = [0, 2]"] ;
1199 -> 1200 ;
1201 [label="X[18] <= -0.5\ngini = 0.404\nsamples = 32\nvalue = [23, 9]"] ;
1199 -> 1201 ;
1202 [label="gini = 0.0\nsamples = 2\nvalue = [0, 2]"] ;
1201 -> 1202 ;
1203 [label="X[61] <= 0.5\ngini = 0.358\nsamples = 30\nvalue = [23, 7]"] ;
1201 -> 1203 ;
1204 [label="X[81] <= -0.5\ngini = 0.302\nsamples = 27\nvalue = [22, 5]"] ;
1203 -> 1204 ;
1205 [label="gini = 0.0\nsamples = 1\nvalue = [0, 1]"] ;
1204 -> 1205 ;
1206 [label="X[9] <= 0.5\ngini = 0.26\nsamples = 26\nvalue = [22, 4]"] ;
1204 -> 1206 ;
1207 [label="X[13] <= 0.5\ngini = 0.211\nsamples = 25\nvalue = [22, 3]"] ;
1206 -> 1207 ;
1208 [label="X[81] <= 0.5\ngini = 0.153\nsamples = 24\nvalue = [22, 2]"] ;
1207 -> 1208 ;
1209 [label="X[95] <= 0.5\ngini = 0.083\nsamples = 23\nvalue = [22, 1]"] ;
1208 -> 1209 ;
1210 [label="gini = 0.0\nsamples = 21\nvalue = [21, 0]"] ;
1209 -> 1210 ;
1211 [label="X[23] <= 0.5\ngini = 0.5\nsamples = 2\nvalue = [1, 1]"] ;
1209 -> 1211 ;
1212 [label="gini = 0.0\nsamples = 1\nvalue = [1, 0]"] ;
1211 -> 1212 ;
1213 [label="gini = 0.0\nsamples = 1\nvalue = [0, 1]"] ;
1211 -> 1213 ;
1214 [label="gini = 0.0\nsamples = 1\nvalue = [0, 1]"] ;
1208 -> 1214 ;
1215 [label="gini = 0.0\nsamples = 1\nvalue = [0, 1]"] ;
1207 -> 1215 ;
1216 [label="gini = 0.0\nsamples = 1\nvalue = [0, 1]"] ;
1206 -> 1216 ;
1217 [label="X[111] <= -0.5\ngini = 0.444\nsamples = 3\nvalue = [1, 2]"] ;
1203 -> 1217 ;
1218 [label="gini = 0.0\nsamples = 1\nvalue = [1, 0]"] ;
1217 -> 1218 ;
1219 [label="gini = 0.0\nsamples = 2\nvalue = [0, 2]"] ;
1217 -> 1219 ;
1220 [label="gini = 0.0\nsamples = 7\nvalue = [7, 0]"] ;
1172 -> 1220 ;
1221 [label="X[43] <= 0.5\ngini = 0.498\nsamples = 51\nvalue = [24, 27]"] ;
431 -> 1221 ;
1222 [label="X[23] <= 0.5\ngini = 0.495\nsamples = 40\nvalue = [22, 18]"] ;
1221 -> 1222 ;
1223 [label="X[46] <= 0.5\ngini = 0.482\nsamples = 37\nvalue = [22, 15]"] ;
1222 -> 1223 ;
1224 [label="X[1] <= 2.5\ngini = 0.457\nsamples = 34\nvalue = [22, 12]"] ;
1223 -> 1224 ;
1225 [label="X[0] <= 224.5\ngini = 0.497\nsamples = 26\nvalue = [14, 12]"] ;
1224 -> 1225 ;
1226 [label="X[21] <= 0.5\ngini = 0.444\nsamples = 18\nvalue = [12, 6]"] ;
1225 -> 1226 ;
1227 [label="X[35] <= 0.5\ngini = 0.375\nsamples = 16\nvalue = [12, 4]"] ;
1226 -> 1227 ;
1228 [label="X[88] <= 0.5\ngini = 0.245\nsamples = 14\nvalue = [12, 2]"] ;
1227 -> 1228 ;
1229 [label="X[33] <= 0.5\ngini = 0.142\nsamples = 13\nvalue = [12, 1]"] ;
1228 -> 1229 ;
1230 [label="gini = 0.0\nsamples = 12\nvalue = [12, 0]"] ;
1229 -> 1230 ;
1231 [label="gini = 0.0\nsamples = 1\nvalue = [0, 1]"] ;
1229 -> 1231 ;
1232 [label="gini = 0.0\nsamples = 1\nvalue = [0, 1]"] ;
1228 -> 1232 ;
1233 [label="gini = 0.0\nsamples = 2\nvalue = [0, 2]"] ;
1227 -> 1233 ;
1234 [label="gini = 0.0\nsamples = 2\nvalue = [0, 2]"] ;
1226 -> 1234 ;
1235 [label="X[100] <= 0.5\ngini = 0.375\nsamples = 8\nvalue = [2, 6]"] ;
1225 -> 1235 ;
1236 [label="gini = 0.0\nsamples = 6\nvalue = [0, 6]"] ;
1235 -> 1236 ;
1237 [label="gini = 0.0\nsamples = 2\nvalue = [2, 0]"] ;
1235 -> 1237 ;
1238 [label="gini = 0.0\nsamples = 8\nvalue = [8, 0]"] ;
1224 -> 1238 ;
1239 [label="gini = 0.0\nsamples = 3\nvalue = [0, 3]"] ;
1223 -> 1239 ;
1240 [label="gini = 0.0\nsamples = 3\nvalue = [0, 3]"] ;
1222 -> 1240 ;
1241 [label="X[27] <= 0.5\ngini = 0.298\nsamples = 11\nvalue = [2, 9]"] ;
1221 -> 1241 ;
1242 [label="X[3] <= -0.5\ngini = 0.18\nsamples = 10\nvalue = [1, 9]"] ;
1241 -> 1242 ;
1243 [label="gini = 0.0\nsamples = 1\nvalue = [1, 0]"] ;
1242 -> 1243 ;
1244 [label="gini = 0.0\nsamples = 9\nvalue = [0, 9]"] ;
1242 -> 1244 ;
1245 [label="gini = 0.0\nsamples = 1\nvalue = [1, 0]"] ;
1241 -> 1245 ;
1246 [label="X[101] <= 0.5\ngini = 0.499\nsamples = 116\nvalue = [61, 55]"] ;
302 -> 1246 ;
1247 [label="X[76] <= -0.5\ngini = 0.5\nsamples = 110\nvalue = [55, 55]"] ;
1246 -> 1247 ;
1248 [label="X[106] <= 0.5\ngini = 0.219\nsamples = 8\nvalue = [1, 7]"] ;
1247 -> 1248 ;
1249 [label="gini = 0.0\nsamples = 7\nvalue = [0, 7]"] ;
1248 -> 1249 ;
1250 [label="gini = 0.0\nsamples = 1\nvalue = [1, 0]"] ;
1248 -> 1250 ;
1251 [label="X[90] <= -0.5\ngini = 0.498\nsamples = 102\nvalue = [54, 48]"] ;
1247 -> 1251 ;
1252 [label="gini = 0.0\nsamples = 4\nvalue = [0, 4]"] ;
1251 -> 1252 ;
1253 [label="X[61] <= -0.5\ngini = 0.495\nsamples = 98\nvalue = [54, 44]"] ;
1251 -> 1253 ;
1254 [label="X[106] <= 0.5\ngini = 0.245\nsamples = 7\nvalue = [1, 6]"] ;
1253 -> 1254 ;
1255 [label="gini = 0.0\nsamples = 6\nvalue = [0, 6]"] ;
1254 -> 1255 ;
1256 [label="gini = 0.0\nsamples = 1\nvalue = [1, 0]"] ;
1254 -> 1256 ;
1257 [label="X[0] <= 151.5\ngini = 0.486\nsamples = 91\nvalue = [53, 38]"] ;
1253 -> 1257 ;
1258 [label="X[55] <= -0.5\ngini = 0.34\nsamples = 23\nvalue = [18, 5]"] ;
1257 -> 1258 ;
1259 [label="gini = 0.0\nsamples = 1\nvalue = [0, 1]"] ;
1258 -> 1259 ;
1260 [label="X[87] <= -0.5\ngini = 0.298\nsamples = 22\nvalue = [18, 4]"] ;
1258 -> 1260 ;
1261 [label="gini = 0.0\nsamples = 1\nvalue = [0, 1]"] ;
1260 -> 1261 ;
1262 [label="X[32] <= -0.5\ngini = 0.245\nsamples = 21\nvalue = [18, 3]"] ;
1260 -> 1262 ;
1263 [label="gini = 0.0\nsamples = 1\nvalue = [0, 1]"] ;
1262 -> 1263 ;
1264 [label="X[77] <= -0.5\ngini = 0.18\nsamples = 20\nvalue = [18, 2]"] ;
1262 -> 1264 ;
1265 [label="gini = 0.0\nsamples = 1\nvalue = [0, 1]"] ;
1264 -> 1265 ;
1266 [label="X[58] <= 0.5\ngini = 0.1\nsamples = 19\nvalue = [18, 1]"] ;
1264 -> 1266 ;
1267 [label="gini = 0.0\nsamples = 18\nvalue = [18, 0]"] ;
1266 -> 1267 ;
1268 [label="gini = 0.0\nsamples = 1\nvalue = [0, 1]"] ;
1266 -> 1268 ;
